{
    "tree_info": [
        {
            "tree_structure": {
                "split_index": 0,
                "threshold": 1.2815,
                "internal_count": 5600,
                "decision_type": "<=",
                "internal_value": 0,
                "split_feature": 25,
                "split_gain": 257.05504144977834,
                "right_child": {
                    "split_index": 14,
                    "threshold": 0.8895000000000001,
                    "internal_count": 1040,
                    "decision_type": "<=",
                    "internal_value": -0.7615384615384615,
                    "split_feature": 27,
                    "split_gain": 21.85671380812701,
                    "right_child": {
                        "split_index": 15,
                        "threshold": 1.1225000000000003,
                        "internal_count": 803,
                        "decision_type": "<=",
                        "internal_value": -0.9190535491905355,
                        "split_feature": 24,
                        "split_gain": 33.647255917153245,
                        "right_child": {
                            "split_index": 19,
                            "threshold": 1.8335000000000004,
                            "internal_count": 381,
                            "decision_type": "<=",
                            "internal_value": -0.4881889763779528,
                            "split_feature": 3,
                            "split_gain": 15.136119680946312,
                            "right_child": {
                                "leaf_value": -0.07192982456140351,
                                "leaf_index": 20,
                                "leaf_count": 57
                            },
                            "missing_type": "None",
                            "default_left": true,
                            "left_child": {
                                "leaf_value": -0.016049382716049384,
                                "leaf_index": 16,
                                "leaf_count": 324
                            }
                        },
                        "missing_type": "None",
                        "default_left": true,
                        "left_child": {
                            "leaf_value": -0.06540284360189573,
                            "leaf_index": 15,
                            "leaf_count": 422
                        }
                    },
                    "missing_type": "None",
                    "default_left": true,
                    "left_child": {
                        "split_index": 20,
                        "threshold": 0.9475000000000001,
                        "internal_count": 237,
                        "decision_type": "<=",
                        "internal_value": -0.22784810126582278,
                        "split_feature": 22,
                        "split_gain": 14.41193892017272,
                        "right_child": {
                            "split_index": 21,
                            "threshold": -0.9644999999999999,
                            "internal_count": 116,
                            "decision_type": "<=",
                            "internal_value": 0.27586206896551724,
                            "split_feature": 19,
                            "split_gain": 15.331564986737396,
                            "right_child": {
                                "leaf_value": 0.03333333333333333,
                                "leaf_index": 22,
                                "leaf_count": 90
                            },
                            "missing_type": "None",
                            "default_left": true,
                            "left_child": {
                                "leaf_value": -0.05384615384615382,
                                "leaf_index": 21,
                                "leaf_count": 26
                            }
                        },
                        "missing_type": "None",
                        "default_left": true,
                        "left_child": {
                            "leaf_value": -0.03553719008264463,
                            "leaf_index": 1,
                            "leaf_count": 121
                        }
                    }
                },
                "missing_type": "None",
                "default_left": true,
                "left_child": {
                    "split_index": 1,
                    "threshold": 0.7805000000000001,
                    "internal_count": 4560,
                    "decision_type": "<=",
                    "internal_value": 0.34035087719298246,
                    "split_feature": 26,
                    "split_gain": 164.48120636837106,
                    "right_child": {
                        "split_index": 2,
                        "threshold": 0.9045000000000002,
                        "internal_count": 3533,
                        "decision_type": "<=",
                        "internal_value": 0.5451457684687234,
                        "split_feature": 27,
                        "split_gain": 154.1529464414479,
                        "right_child": {
                            "split_index": 5,
                            "threshold": 1.0265000000000002,
                            "internal_count": 1593,
                            "decision_type": "<=",
                            "internal_value": 0.08411801632140616,
                            "split_feature": 24,
                            "split_gain": 52.55536501367184,
                            "right_child": {
                                "split_index": 12,
                                "threshold": 0.6235,
                                "internal_count": 974,
                                "decision_type": "<=",
                                "internal_value": 0.3737166324435318,
                                "split_feature": 25,
                                "split_gain": 25.97676654588679,
                                "right_child": {
                                    "split_index": 16,
                                    "threshold": 1.9205000000000003,
                                    "internal_count": 813,
                                    "decision_type": "<=",
                                    "internal_value": 0.5190651906519065,
                                    "split_feature": 3,
                                    "split_gain": 17.886983613559984,
                                    "right_child": {
                                        "leaf_value": -0.014583333333333335,
                                        "leaf_index": 17,
                                        "leaf_count": 96
                                    },
                                    "missing_type": "None",
                                    "default_left": true,
                                    "left_child": {
                                        "split_index": 17,
                                        "threshold": 0.9895000000000002,
                                        "internal_count": 717,
                                        "decision_type": "<=",
                                        "internal_value": 0.6276150627615062,
                                        "split_feature": 25,
                                        "split_gain": 17.32991543764733,
                                        "right_child": {
                                            "split_index": 18,
                                            "threshold": 1.3835000000000004,
                                            "internal_count": 260,
                                            "decision_type": "<=",
                                            "internal_value": 0.2153846153846154,
                                            "split_feature": 13,
                                            "split_gain": 16.213031251869726,
                                            "right_child": {
                                                "leaf_value": 0.05789473684210527,
                                                "leaf_index": 19,
                                                "leaf_count": 57
                                            },
                                            "missing_type": "None",
                                            "default_left": true,
                                            "left_child": {
                                                "leaf_value": -0.0024630541871921187,
                                                "leaf_index": 18,
                                                "leaf_count": 203
                                            }
                                        },
                                        "missing_type": "None",
                                        "default_left": true,
                                        "left_child": {
                                            "leaf_value": 0.043107221006564556,
                                            "leaf_index": 13,
                                            "leaf_count": 457
                                        }
                                    }
                                },
                                "missing_type": "None",
                                "default_left": true,
                                "left_child": {
                                    "leaf_value": -0.01801242236024845,
                                    "leaf_index": 6,
                                    "leaf_count": 161
                                }
                            },
                            "missing_type": "None",
                            "default_left": true,
                            "left_child": {
                                "split_index": 6,
                                "threshold": 1.0445000000000002,
                                "internal_count": 619,
                                "decision_type": "<=",
                                "internal_value": -0.3715670436187399,
                                "split_feature": 22,
                                "split_gain": 83.93373404646182,
                                "right_child": {
                                    "split_index": 24,
                                    "threshold": 1.2535,
                                    "internal_count": 312,
                                    "decision_type": "<=",
                                    "internal_value": 0.358974358974359,
                                    "split_feature": 4,
                                    "split_gain": 12.686845492815642,
                                    "right_child": {
                                        "leaf_value": -0.03181818181818182,
                                        "leaf_index": 25,
                                        "leaf_count": 44
                                    },
                                    "missing_type": "None",
                                    "default_left": true,
                                    "left_child": {
                                        "split_index": 25,
                                        "threshold": -0.27149999999999996,
                                        "internal_count": 268,
                                        "decision_type": "<=",
                                        "internal_value": 0.5223880597014925,
                                        "split_feature": 4,
                                        "split_gain": 13.668520388866028,
                                        "right_child": {
                                            "leaf_value": 0.04887218045112782,
                                            "leaf_index": 26,
                                            "leaf_count": 133
                                        },
                                        "missing_type": "None",
                                        "default_left": true,
                                        "left_child": {
                                            "leaf_value": 0.003703703703703704,
                                            "leaf_index": 7,
                                            "leaf_count": 135
                                        }
                                    }
                                },
                                "missing_type": "None",
                                "default_left": true,
                                "left_child": {
                                    "leaf_value": -0.05570032573289903,
                                    "leaf_index": 3,
                                    "leaf_count": 307
                                }
                            }
                        },
                        "missing_type": "None",
                        "default_left": true,
                        "left_child": {
                            "split_index": 3,
                            "threshold": 0.9845000000000002,
                            "internal_count": 1940,
                            "decision_type": "<=",
                            "internal_value": 0.9237113402061856,
                            "split_feature": 25,
                            "split_gain": 62.97817962220586,
                            "right_child": {
                                "split_index": 8,
                                "threshold": 1.0195000000000003,
                                "internal_count": 399,
                                "decision_type": "<=",
                                "internal_value": 0.21553884711779447,
                                "split_feature": 5,
                                "split_gain": 33.473928724249646,
                                "right_child": {
                                    "leaf_value": 0.05714285714285714,
                                    "leaf_index": 9,
                                    "leaf_count": 112
                                },
                                "missing_type": "None",
                                "default_left": true,
                                "left_child": {
                                    "split_index": 13,
                                    "threshold": 0.8885000000000002,
                                    "internal_count": 287,
                                    "decision_type": "<=",
                                    "internal_value": -0.14634146341463414,
                                    "split_feature": 26,
                                    "split_gain": 22.037843051377234,
                                    "right_child": {
                                        "leaf_value": 0.017721518987341773,
                                        "leaf_index": 14,
                                        "leaf_count": 158
                                    },
                                    "missing_type": "None",
                                    "default_left": true,
                                    "left_child": {
                                        "leaf_value": -0.037984496124031014,
                                        "leaf_index": 4,
                                        "leaf_count": 129
                                    }
                                }
                            },
                            "missing_type": "None",
                            "default_left": true,
                            "left_child": {
                                "split_index": 4,
                                "threshold": 0.6785000000000001,
                                "internal_count": 1541,
                                "decision_type": "<=",
                                "internal_value": 1.1070733290071382,
                                "split_feature": 25,
                                "split_gain": 70.54263838622671,
                                "right_child": {
                                    "split_index": 10,
                                    "threshold": 0.8695000000000002,
                                    "internal_count": 1143,
                                    "decision_type": "<=",
                                    "internal_value": 1.3595800524934383,
                                    "split_feature": 26,
                                    "split_gain": 27.70794321482117,
                                    "right_child": {
                                        "leaf_value": 0.07922769640479362,
                                        "leaf_index": 11,
                                        "leaf_count": 751
                                    },
                                    "missing_type": "None",
                                    "default_left": true,
                                    "left_child": {
                                        "split_index": 11,
                                        "threshold": 0.7885000000000001,
                                        "internal_count": 392,
                                        "decision_type": "<=",
                                        "internal_value": 0.9285714285714286,
                                        "split_feature": 27,
                                        "split_gain": 26.485653743525347,
                                        "right_child": {
                                            "leaf_value": 0.006086956521739131,
                                            "leaf_index": 12,
                                            "leaf_count": 115
                                        },
                                        "missing_type": "None",
                                        "default_left": true,
                                        "left_child": {
                                            "leaf_value": 0.0631768953068592,
                                            "leaf_index": 5,
                                            "leaf_count": 277
                                        }
                                    }
                                },
                                "missing_type": "None",
                                "default_left": true,
                                "left_child": {
                                    "split_index": 28,
                                    "threshold": 0.9615000000000001,
                                    "internal_count": 398,
                                    "decision_type": "<=",
                                    "internal_value": 0.38190954773869346,
                                    "split_feature": 13,
                                    "split_gain": 12.28102489128206,
                                    "right_child": {
                                        "leaf_value": 0.049019607843137254,
                                        "leaf_index": 29,
                                        "leaf_count": 102
                                    },
                                    "missing_type": "None",
                                    "default_left": true,
                                    "left_child": {
                                        "split_index": 29,
                                        "threshold": 0.7515000000000001,
                                        "internal_count": 296,
                                        "decision_type": "<=",
                                        "internal_value": 0.17567567567567569,
                                        "split_feature": 24,
                                        "split_gain": 14.386191402320433,
                                        "right_child": {
                                            "leaf_value": -0.002564102564102564,
                                            "leaf_index": 30,
                                            "leaf_count": 234
                                        },
                                        "missing_type": "None",
                                        "default_left": true,
                                        "left_child": {
                                            "leaf_value": 0.05161290322580645,
                                            "leaf_index": 2,
                                            "leaf_count": 62
                                        }
                                    }
                                }
                            }
                        }
                    },
                    "missing_type": "None",
                    "default_left": true,
                    "left_child": {
                        "split_index": 7,
                        "threshold": 0.8255,
                        "internal_count": 1027,
                        "decision_type": "<=",
                        "internal_value": -0.3641674780915287,
                        "split_feature": 5,
                        "split_gain": 35.88275387755517,
                        "right_child": {
                            "split_index": 9,
                            "threshold": 0.9225000000000001,
                            "internal_count": 335,
                            "decision_type": "<=",
                            "internal_value": 0.17313432835820897,
                            "split_feature": 27,
                            "split_gain": 27.7994563921606,
                            "right_child": {
                                "leaf_value": -0.1,
                                "leaf_index": 10,
                                "leaf_count": 22
                            },
                            "missing_type": "None",
                            "default_left": true,
                            "left_child": {
                                "split_index": 22,
                                "threshold": 1.3365000000000002,
                                "internal_count": 313,
                                "decision_type": "<=",
                                "internal_value": 0.3258785942492013,
                                "split_feature": 5,
                                "split_gain": 14.181323916820805,
                                "right_child": {
                                    "leaf_value": 0.06140350877192983,
                                    "leaf_index": 23,
                                    "leaf_count": 57
                                },
                                "missing_type": "None",
                                "default_left": true,
                                "left_child": {
                                    "split_index": 26,
                                    "threshold": 0.5865000000000001,
                                    "internal_count": 256,
                                    "decision_type": "<=",
                                    "internal_value": 0.125,
                                    "split_feature": 25,
                                    "split_gain": 12.618151632540123,
                                    "right_child": {
                                        "leaf_value": 0.026618705035971225,
                                        "leaf_index": 27,
                                        "leaf_count": 139
                                    },
                                    "missing_type": "None",
                                    "default_left": true,
                                    "left_child": {
                                        "split_index": 27,
                                        "threshold": 0.7455000000000002,
                                        "internal_count": 117,
                                        "decision_type": "<=",
                                        "internal_value": -0.358974358974359,
                                        "split_feature": 24,
                                        "split_gain": 12.659340659340659,
                                        "right_child": {
                                            "leaf_value": -0.06190476190476191,
                                            "leaf_index": 28,
                                            "leaf_count": 42
                                        },
                                        "missing_type": "None",
                                        "default_left": true,
                                        "left_child": {
                                            "leaf_value": 0.006666666666666665,
                                            "leaf_index": 8,
                                            "leaf_count": 75
                                        }
                                    }
                                }
                            }
                        },
                        "missing_type": "None",
                        "default_left": true,
                        "left_child": {
                            "split_index": 23,
                            "threshold": 0.7185000000000001,
                            "internal_count": 692,
                            "decision_type": "<=",
                            "internal_value": -0.6242774566473989,
                            "split_feature": 24,
                            "split_gain": 13.395714621949764,
                            "right_child": {
                                "leaf_value": -0.042787286063569685,
                                "leaf_index": 24,
                                "leaf_count": 409
                            },
                            "missing_type": "None",
                            "default_left": true,
                            "left_child": {
                                "leaf_value": -0.014487632508833923,
                                "leaf_index": 0,
                                "leaf_count": 283
                            }
                        }
                    }
                }
            },
            "num_leaves": 31,
            "shrinkage": 0.05,
            "tree_index": 0,
            "num_cat": 0
        },
        {
            "tree_structure": {
                "split_index": 0,
                "threshold": 1.2815,
                "internal_count": 5600,
                "decision_type": "<=",
                "internal_value": 0,
                "split_feature": 25,
                "split_gain": 232.13966682420568,
                "right_child": {
                    "split_index": 6,
                    "threshold": 1.0445000000000002,
                    "internal_count": 1040,
                    "decision_type": "<=",
                    "internal_value": -0.7239100639049723,
                    "split_feature": 22,
                    "split_gain": 19.949543696038035,
                    "right_child": {
                        "split_index": 17,
                        "threshold": 2.0390000000000006,
                        "internal_count": 351,
                        "decision_type": "<=",
                        "internal_value": -0.3357091380349018,
                        "split_feature": 25,
                        "split_gain": 12.701379525247047,
                        "right_child": {
                            "leaf_value": -0.04847911110060985,
                            "leaf_index": 18,
                            "leaf_count": 93
                        },
                        "missing_type": "None",
                        "default_left": true,
                        "left_child": {
                            "leaf_value": -0.005361413113491433,
                            "leaf_index": 7,
                            "leaf_count": 258
                        }
                    },
                    "missing_type": "None",
                    "default_left": true,
                    "left_child": {
                        "split_index": 11,
                        "threshold": 0.9765,
                        "internal_count": 689,
                        "decision_type": "<=",
                        "internal_value": -0.9216822279494342,
                        "split_feature": 26,
                        "split_gain": 17.741236988146113,
                        "right_child": {
                            "split_index": 12,
                            "threshold": 0.7845000000000001,
                            "internal_count": 559,
                            "decision_type": "<=",
                            "internal_value": -1.0765171107703515,
                            "split_feature": 22,
                            "split_gain": 20.19878046785138,
                            "right_child": {
                                "split_index": 26,
                                "threshold": 1.1005000000000003,
                                "internal_count": 498,
                                "decision_type": "<=",
                                "internal_value": -1.209623985552079,
                                "split_feature": 24,
                                "split_gain": 9.941646498941822,
                                "right_child": {
                                    "leaf_value": -0.04308905478289894,
                                    "leaf_index": 27,
                                    "leaf_count": 198
                                },
                                "missing_type": "None",
                                "default_left": true,
                                "left_child": {
                                    "leaf_value": -0.07196723479091573,
                                    "leaf_index": 13,
                                    "leaf_count": 300
                                }
                            },
                            "missing_type": "None",
                            "default_left": true,
                            "left_child": {
                                "leaf_value": 0.0005033236819142684,
                                "leaf_index": 12,
                                "leaf_count": 61
                            }
                        },
                        "missing_type": "None",
                        "default_left": true,
                        "left_child": {
                            "split_index": 24,
                            "threshold": 0.8185000000000001,
                            "internal_count": 130,
                            "decision_type": "<=",
                            "internal_value": -0.25606438005094956,
                            "split_feature": 9,
                            "split_gain": 11.230078946756642,
                            "right_child": {
                                "leaf_value": 0.006441253992041153,
                                "leaf_index": 25,
                                "leaf_count": 91
                            },
                            "missing_type": "None",
                            "default_left": true,
                            "left_child": {
                                "leaf_value": -0.05770994793961011,
                                "leaf_index": 1,
                                "leaf_count": 39
                            }
                        }
                    }
                },
                "missing_type": "None",
                "default_left": true,
                "left_child": {
                    "split_index": 1,
                    "threshold": 0.7765000000000001,
                    "internal_count": 4560,
                    "decision_type": "<=",
                    "internal_value": 0.3235322728401352,
                    "split_feature": 26,
                    "split_gain": 148.83767691418672,
                    "right_child": {
                        "split_index": 2,
                        "threshold": 0.6235,
                        "internal_count": 3556,
                        "decision_type": "<=",
                        "internal_value": 0.515611907343177,
                        "split_feature": 25,
                        "split_gain": 79.26777443236526,
                        "right_child": {
                            "split_index": 3,
                            "threshold": 0.9895000000000002,
                            "internal_count": 2970,
                            "decision_type": "<=",
                            "internal_value": 0.648323599102987,
                            "split_feature": 25,
                            "split_gain": 117.4678041009152,
                            "right_child": {
                                "split_index": 9,
                                "threshold": 1.0025000000000002,
                                "internal_count": 842,
                                "decision_type": "<=",
                                "internal_value": 0.015940464546410304,
                                "split_feature": 22,
                                "split_gain": 18.531835679118558,
                                "right_child": {
                                    "split_index": 14,
                                    "threshold": 0.9495000000000001,
                                    "internal_count": 342,
                                    "decision_type": "<=",
                                    "internal_value": 0.37475107160708526,
                                    "split_feature": 26,
                                    "split_gain": 14.21321021300059,
                                    "right_child": {
                                        "split_index": 21,
                                        "threshold": 1.1205000000000003,
                                        "internal_count": 269,
                                        "decision_type": "<=",
                                        "internal_value": 0.5871707822846798,
                                        "split_feature": 26,
                                        "split_gain": 11.49624437152389,
                                        "right_child": {
                                            "split_index": 22,
                                            "threshold": 0.6290000000000001,
                                            "internal_count": 146,
                                            "decision_type": "<=",
                                            "internal_value": 0.20762107966668408,
                                            "split_feature": 19,
                                            "split_gain": 11.792923279893067,
                                            "right_child": {
                                                "leaf_value": 0.053661654091943393,
                                                "leaf_index": 23,
                                                "leaf_count": 44
                                            },
                                            "missing_type": "None",
                                            "default_left": true,
                                            "left_child": {
                                                "leaf_value": -0.008286931403041183,
                                                "leaf_index": 22,
                                                "leaf_count": 102
                                            }
                                        },
                                        "missing_type": "None",
                                        "default_left": true,
                                        "left_child": {
                                            "leaf_value": 0.05188473149961253,
                                            "leaf_index": 15,
                                            "leaf_count": 123
                                        }
                                    },
                                    "missing_type": "None",
                                    "default_left": true,
                                    "left_child": {
                                        "split_index": 27,
                                        "threshold": 0.9805,
                                        "internal_count": 73,
                                        "decision_type": "<=",
                                        "internal_value": -0.40806921066618423,
                                        "split_feature": 5,
                                        "split_gain": 9.356510713145301,
                                        "right_child": {
                                            "leaf_value": 0.037897996234674464,
                                            "leaf_index": 28,
                                            "leaf_count": 20
                                        },
                                        "missing_type": "None",
                                        "default_left": true,
                                        "left_child": {
                                            "leaf_value": -0.04239584053069534,
                                            "leaf_index": 10,
                                            "leaf_count": 53
                                        }
                                    }
                                },
                                "missing_type": "None",
                                "default_left": true,
                                "left_child": {
                                    "split_index": 10,
                                    "threshold": 0.8495000000000001,
                                    "internal_count": 500,
                                    "decision_type": "<=",
                                    "internal_value": -0.22950061414735978,
                                    "split_feature": 22,
                                    "split_gain": 19.01623481006615,
                                    "right_child": {
                                        "leaf_value": -0.028485674888581138,
                                        "leaf_index": 11,
                                        "leaf_count": 284
                                    },
                                    "missing_type": "None",
                                    "default_left": true,
                                    "left_child": {
                                        "leaf_value": 0.010891079506783787,
                                        "leaf_index": 4,
                                        "leaf_count": 216
                                    }
                                }
                            },
                            "missing_type": "None",
                            "default_left": true,
                            "left_child": {
                                "split_index": 4,
                                "threshold": 1.6175000000000004,
                                "internal_count": 2128,
                                "decision_type": "<=",
                                "internal_value": 0.8986801561689424,
                                "split_feature": 3,
                                "split_gain": 38.00116633081831,
                                "right_child": {
                                    "split_index": 20,
                                    "threshold": 1.7450000000000003,
                                    "internal_count": 286,
                                    "decision_type": "<=",
                                    "internal_value": 0.22020362598081503,
                                    "split_feature": 24,
                                    "split_gain": 11.552063973906218,
                                    "right_child": {
                                        "leaf_value": -0.04999969000749288,
                                        "leaf_index": 21,
                                        "leaf_count": 28
                                    },
                                    "missing_type": "None",
                                    "default_left": true,
                                    "left_child": {
                                        "split_index": 23,
                                        "threshold": 0.7325,
                                        "internal_count": 258,
                                        "decision_type": "<=",
                                        "internal_value": 0.3526990346798903,
                                        "split_feature": 13,
                                        "split_gain": 11.481274030283238,
                                        "right_child": {
                                            "leaf_value": 0.0023226244816229773,
                                            "leaf_index": 24,
                                            "leaf_count": 169
                                        },
                                        "missing_type": "None",
                                        "default_left": true,
                                        "left_child": {
                                            "leaf_value": 0.046717290064776346,
                                            "leaf_index": 5,
                                            "leaf_count": 89
                                        }
                                    }
                                },
                                "missing_type": "None",
                                "default_left": true,
                                "left_child": {
                                    "split_index": 7,
                                    "threshold": 0.8815000000000001,
                                    "internal_count": 1842,
                                    "decision_type": "<=",
                                    "internal_value": 1.0040544972311776,
                                    "split_feature": 5,
                                    "split_gain": 19.301237194435714,
                                    "right_child": {
                                        "split_index": 8,
                                        "threshold": 1.0375000000000003,
                                        "internal_count": 946,
                                        "decision_type": "<=",
                                        "internal_value": 1.203393551088123,
                                        "split_feature": 26,
                                        "split_gain": 21.554280467081128,
                                        "right_child": {
                                            "leaf_value": 0.03854481196019653,
                                            "leaf_index": 9,
                                            "leaf_count": 310
                                        },
                                        "missing_type": "None",
                                        "default_left": true,
                                        "left_child": {
                                            "leaf_value": 0.07071586616741485,
                                            "leaf_index": 8,
                                            "leaf_count": 636
                                        }
                                    },
                                    "missing_type": "None",
                                    "default_left": true,
                                    "left_child": {
                                        "split_index": 18,
                                        "threshold": 1.1435000000000002,
                                        "internal_count": 896,
                                        "decision_type": "<=",
                                        "internal_value": 0.7935971236263624,
                                        "split_feature": 3,
                                        "split_gain": 12.375124107382959,
                                        "right_child": {
                                            "leaf_value": 0.01829725924552224,
                                            "leaf_index": 19,
                                            "leaf_count": 208
                                        },
                                        "missing_type": "None",
                                        "default_left": true,
                                        "left_child": {
                                            "leaf_value": 0.04614497169127874,
                                            "leaf_index": 3,
                                            "leaf_count": 688
                                        }
                                    }
                                }
                            }
                        },
                        "missing_type": "None",
                        "default_left": true,
                        "left_child": {
                            "split_index": 19,
                            "threshold": 1.5755000000000001,
                            "internal_count": 586,
                            "decision_type": "<=",
                            "internal_value": -0.15669864074650852,
                            "split_feature": 5,
                            "split_gain": 12.227312084894585,
                            "right_child": {
                                "leaf_value": 0.03846217429483855,
                                "leaf_index": 20,
                                "leaf_count": 52
                            },
                            "missing_type": "None",
                            "default_left": true,
                            "left_child": {
                                "leaf_value": -0.012343081404711853,
                                "leaf_index": 2,
                                "leaf_count": 534
                            }
                        }
                    },
                    "missing_type": "None",
                    "default_left": true,
                    "left_child": {
                        "split_index": 5,
                        "threshold": 0.8255,
                        "internal_count": 1004,
                        "decision_type": "<=",
                        "internal_value": -0.3565839264620906,
                        "split_feature": 5,
                        "split_gain": 33.8963857994428,
                        "right_child": {
                            "split_index": 13,
                            "threshold": 0.9765,
                            "internal_count": 324,
                            "decision_type": "<=",
                            "internal_value": 0.17595366146360822,
                            "split_feature": 3,
                            "split_gain": 15.812687992859587,
                            "right_child": {
                                "split_index": 16,
                                "threshold": 0.8925000000000002,
                                "internal_count": 126,
                                "decision_type": "<=",
                                "internal_value": -0.3781454159229739,
                                "split_feature": 9,
                                "split_gain": 12.730573466180324,
                                "right_child": {
                                    "leaf_value": 0.022314618105371813,
                                    "leaf_index": 17,
                                    "leaf_count": 47
                                },
                                "missing_type": "None",
                                "default_left": true,
                                "left_child": {
                                    "leaf_value": -0.04343496681099046,
                                    "leaf_index": 14,
                                    "leaf_count": 79
                                }
                            },
                            "missing_type": "None",
                            "default_left": true,
                            "left_child": {
                                "leaf_value": 0.02642264856555575,
                                "leaf_index": 6,
                                "leaf_count": 198
                            }
                        },
                        "missing_type": "None",
                        "default_left": true,
                        "left_child": {
                            "split_index": 15,
                            "threshold": 0.7185000000000001,
                            "internal_count": 680,
                            "decision_type": "<=",
                            "internal_value": -0.6102645937350148,
                            "split_feature": 24,
                            "split_gain": 13.271451172233753,
                            "right_child": {
                                "leaf_value": -0.042241189160716126,
                                "leaf_index": 16,
                                "leaf_count": 399
                            },
                            "missing_type": "None",
                            "default_left": true,
                            "left_child": {
                                "split_index": 25,
                                "threshold": 1.0425000000000002,
                                "internal_count": 281,
                                "decision_type": "<=",
                                "internal_value": -0.2773421589524436,
                                "split_feature": 19,
                                "split_gain": 10.078163890536723,
                                "right_child": {
                                    "leaf_value": -0.051002445266993324,
                                    "leaf_index": 26,
                                    "leaf_count": 58
                                },
                                "missing_type": "None",
                                "default_left": true,
                                "left_child": {
                                    "split_index": 28,
                                    "threshold": 0.9805,
                                    "internal_count": 223,
                                    "decision_type": "<=",
                                    "internal_value": -0.08417179442118562,
                                    "split_feature": 23,
                                    "split_gain": 9.320496122752706,
                                    "right_child": {
                                        "split_index": 29,
                                        "threshold": 0.3365000000000001,
                                        "internal_count": 200,
                                        "decision_type": "<=",
                                        "internal_value": 0.05449018307692455,
                                        "split_feature": 3,
                                        "split_gain": 10.59429511450761,
                                        "right_child": {
                                            "leaf_value": -0.0061725089723261755,
                                            "leaf_index": 30,
                                            "leaf_count": 174
                                        },
                                        "missing_type": "None",
                                        "default_left": true,
                                        "left_child": {
                                            "leaf_value": 0.06226609199823077,
                                            "leaf_index": 29,
                                            "leaf_count": 26
                                        }
                                    },
                                    "missing_type": "None",
                                    "default_left": true,
                                    "left_child": {
                                        "leaf_value": -0.06449640602458544,
                                        "leaf_index": 0,
                                        "leaf_count": 23
                                    }
                                }
                            }
                        }
                    }
                }
            },
            "num_leaves": 31,
            "shrinkage": 0.05,
            "tree_index": 1,
            "num_cat": 0
        },
        {
            "tree_structure": {
                "split_index": 0,
                "threshold": 0.9025000000000002,
                "internal_count": 5600,
                "decision_type": "<=",
                "internal_value": 0,
                "split_feature": 27,
                "split_gain": 147.60440192851527,
                "right_child": {
                    "split_index": 2,
                    "threshold": 1.0265000000000002,
                    "internal_count": 2443,
                    "decision_type": "<=",
                    "internal_value": -0.24661993858559503,
                    "split_feature": 24,
                    "split_gain": 89.39675306100195,
                    "right_child": {
                        "split_index": 5,
                        "threshold": 1.9205000000000003,
                        "internal_count": 1422,
                        "decision_type": "<=",
                        "internal_value": 0.07768302393329307,
                        "split_feature": 3,
                        "split_gain": 27.36174709519227,
                        "right_child": {
                            "split_index": 10,
                            "threshold": 1.2195000000000003,
                            "internal_count": 176,
                            "decision_type": "<=",
                            "internal_value": -0.6608716620687364,
                            "split_feature": 26,
                            "split_gain": 16.175657131791755,
                            "right_child": {
                                "leaf_value": -0.06011965797108507,
                                "leaf_index": 11,
                                "leaf_count": 98
                            },
                            "missing_type": "None",
                            "default_left": true,
                            "left_child": {
                                "split_index": 25,
                                "threshold": -0.5024999999999998,
                                "internal_count": 78,
                                "decision_type": "<=",
                                "internal_value": 0.01872845668671044,
                                "split_feature": 1,
                                "split_gain": 10.66927341440574,
                                "right_child": {
                                    "leaf_value": -0.028306053317168536,
                                    "leaf_index": 26,
                                    "leaf_count": 48
                                },
                                "missing_type": "None",
                                "default_left": true,
                                "left_child": {
                                    "leaf_value": 0.047732682413330396,
                                    "leaf_index": 6,
                                    "leaf_count": 30
                                }
                            }
                        },
                        "missing_type": "None",
                        "default_left": true,
                        "left_child": {
                            "split_index": 12,
                            "threshold": 1.0465000000000002,
                            "internal_count": 1246,
                            "decision_type": "<=",
                            "internal_value": 0.1820134474579292,
                            "split_feature": 22,
                            "split_gain": 13.457119014942425,
                            "right_child": {
                                "leaf_value": 0.021265591113051152,
                                "leaf_index": 13,
                                "leaf_count": 526
                            },
                            "missing_type": "None",
                            "default_left": true,
                            "left_child": {
                                "split_index": 13,
                                "threshold": 0.7445000000000002,
                                "internal_count": 720,
                                "decision_type": "<=",
                                "internal_value": 0.0042475650242419305,
                                "split_feature": 22,
                                "split_gain": 18.48302409987938,
                                "right_child": {
                                    "leaf_value": -0.005847735355514281,
                                    "leaf_index": 14,
                                    "leaf_count": 630
                                },
                                "missing_type": "None",
                                "default_left": true,
                                "left_child": {
                                    "leaf_value": 0.04262322754930032,
                                    "leaf_index": 3,
                                    "leaf_count": 90
                                }
                            }
                        }
                    },
                    "missing_type": "None",
                    "default_left": true,
                    "left_child": {
                        "split_index": 3,
                        "threshold": 1.0445000000000002,
                        "internal_count": 1021,
                        "decision_type": "<=",
                        "internal_value": -0.698600972988163,
                        "split_feature": 22,
                        "split_gain": 95.02573190601315,
                        "right_child": {
                            "split_index": 9,
                            "threshold": 1.3665,
                            "internal_count": 439,
                            "decision_type": "<=",
                            "internal_value": 0.004189233045756528,
                            "split_feature": 26,
                            "split_gain": 18.72848435890635,
                            "right_child": {
                                "split_index": 11,
                                "threshold": 1.5530000000000002,
                                "internal_count": 139,
                                "decision_type": "<=",
                                "internal_value": -0.6031237641330743,
                                "split_feature": 22,
                                "split_gain": 13.551498638296412,
                                "right_child": {
                                    "split_index": 19,
                                    "threshold": -0.8034999999999999,
                                    "internal_count": 98,
                                    "decision_type": "<=",
                                    "internal_value": -0.19900147539069707,
                                    "split_feature": 18,
                                    "split_gain": 11.711834040725853,
                                    "right_child": {
                                        "leaf_value": 0.015257552015167165,
                                        "leaf_index": 20,
                                        "leaf_count": 64
                                    },
                                    "missing_type": "None",
                                    "default_left": true,
                                    "left_child": {
                                        "leaf_value": -0.0574190697871094,
                                        "leaf_index": 12,
                                        "leaf_count": 34
                                    }
                                },
                                "missing_type": "None",
                                "default_left": true,
                                "left_child": {
                                    "leaf_value": -0.07847074317965057,
                                    "leaf_index": 10,
                                    "leaf_count": 41
                                }
                            },
                            "missing_type": "None",
                            "default_left": true,
                            "left_child": {
                                "split_index": 14,
                                "threshold": 0.7825000000000001,
                                "internal_count": 300,
                                "decision_type": "<=",
                                "internal_value": 0.285511440387296,
                                "split_feature": 24,
                                "split_gain": 13.287562276310876,
                                "right_child": {
                                    "leaf_value": -0.00028009770138282116,
                                    "leaf_index": 15,
                                    "leaf_count": 203
                                },
                                "missing_type": "None",
                                "default_left": true,
                                "left_child": {
                                    "split_index": 28,
                                    "threshold": 0.7805000000000001,
                                    "internal_count": 97,
                                    "decision_type": "<=",
                                    "internal_value": 0.8947789553414877,
                                    "split_feature": 13,
                                    "split_gain": 10.180754735732862,
                                    "right_child": {
                                        "leaf_value": 0.06590768901654649,
                                        "leaf_index": 29,
                                        "leaf_count": 68
                                    },
                                    "missing_type": "None",
                                    "default_left": true,
                                    "left_child": {
                                        "leaf_value": -0.00489901366878786,
                                        "leaf_index": 4,
                                        "leaf_count": 29
                                    }
                                }
                            }
                        },
                        "missing_type": "None",
                        "default_left": true,
                        "left_child": {
                            "split_index": 17,
                            "threshold": 1.0885000000000002,
                            "internal_count": 582,
                            "decision_type": "<=",
                            "internal_value": -1.2292832970979233,
                            "split_feature": 27,
                            "split_gain": 12.684715117253177,
                            "right_child": {
                                "leaf_value": -0.08136050800318463,
                                "leaf_index": 18,
                                "leaf_count": 207
                            },
                            "missing_type": "None",
                            "default_left": true,
                            "left_child": {
                                "split_index": 23,
                                "threshold": 0.7355000000000002,
                                "internal_count": 375,
                                "decision_type": "<=",
                                "internal_value": -1.00969947460203,
                                "split_feature": 24,
                                "split_gain": 10.727021891288658,
                                "right_child": {
                                    "split_index": 24,
                                    "threshold": 0.8015000000000001,
                                    "internal_count": 317,
                                    "decision_type": "<=",
                                    "internal_value": -1.1545872978126714,
                                    "split_feature": 22,
                                    "split_gain": 12.22316052072486,
                                    "right_child": {
                                        "leaf_value": -0.06684194353732903,
                                        "leaf_index": 25,
                                        "leaf_count": 261
                                    },
                                    "missing_type": "None",
                                    "default_left": true,
                                    "left_child": {
                                        "leaf_value": -0.015320437252116518,
                                        "leaf_index": 24,
                                        "leaf_count": 56
                                    }
                                },
                                "missing_type": "None",
                                "default_left": true,
                                "left_child": {
                                    "leaf_value": -0.010913576627317375,
                                    "leaf_index": 1,
                                    "leaf_count": 58
                                }
                            }
                        }
                    }
                },
                "missing_type": "None",
                "default_left": true,
                "left_child": {
                    "split_index": 1,
                    "threshold": 0.8115000000000001,
                    "internal_count": 3157,
                    "decision_type": "<=",
                    "internal_value": 0.40867427701203785,
                    "split_feature": 26,
                    "split_gain": 183.23640837942548,
                    "right_child": {
                        "split_index": 6,
                        "threshold": 0.8965000000000001,
                        "internal_count": 1953,
                        "decision_type": "<=",
                        "internal_value": 0.787609825258478,
                        "split_feature": 5,
                        "split_gain": 26.94062329405,
                        "right_child": {
                            "leaf_value": 0.05167042682225795,
                            "leaf_index": 7,
                            "leaf_count": 934
                        },
                        "missing_type": "None",
                        "default_left": true,
                        "left_child": {
                            "split_index": 7,
                            "threshold": 1.0355,
                            "internal_count": 1019,
                            "decision_type": "<=",
                            "internal_value": 0.5625701093047968,
                            "split_feature": 22,
                            "split_gain": 18.917452138620533,
                            "right_child": {
                                "leaf_value": 0.0538262584781147,
                                "leaf_index": 8,
                                "leaf_count": 224
                            },
                            "missing_type": "None",
                            "default_left": true,
                            "left_child": {
                                "split_index": 8,
                                "threshold": 0.8385000000000001,
                                "internal_count": 795,
                                "decision_type": "<=",
                                "internal_value": 0.41780599103588456,
                                "split_feature": 27,
                                "split_gain": 22.14290203837593,
                                "right_child": {
                                    "split_index": 16,
                                    "threshold": 0.8985000000000002,
                                    "internal_count": 232,
                                    "decision_type": "<=",
                                    "internal_value": -0.10254443355640082,
                                    "split_feature": 26,
                                    "split_gain": 13.048048689469873,
                                    "right_child": {
                                        "leaf_value": 0.010162108398462578,
                                        "leaf_index": 17,
                                        "leaf_count": 164
                                    },
                                    "missing_type": "None",
                                    "default_left": true,
                                    "left_child": {
                                        "leaf_value": -0.041970675968428066,
                                        "leaf_index": 9,
                                        "leaf_count": 68
                                    }
                                },
                                "missing_type": "None",
                                "default_left": true,
                                "left_child": {
                                    "split_index": 26,
                                    "threshold": -1.2844999999999998,
                                    "internal_count": 563,
                                    "decision_type": "<=",
                                    "internal_value": 0.6323108918969744,
                                    "split_feature": 4,
                                    "split_gain": 10.465320191903558,
                                    "right_child": {
                                        "leaf_value": 0.03717039946238673,
                                        "leaf_index": 27,
                                        "leaf_count": 483
                                    },
                                    "missing_type": "None",
                                    "default_left": true,
                                    "left_child": {
                                        "split_index": 27,
                                        "threshold": 0.8605000000000002,
                                        "internal_count": 80,
                                        "decision_type": "<=",
                                        "internal_value": -0.03827487964260477,
                                        "split_feature": 26,
                                        "split_gain": 15.414294478301965,
                                        "right_child": {
                                            "leaf_value": 0.03785017948276381,
                                            "leaf_index": 28,
                                            "leaf_count": 44
                                        },
                                        "missing_type": "None",
                                        "default_left": true,
                                        "left_child": {
                                            "leaf_value": -0.05045453387783089,
                                            "leaf_index": 2,
                                            "leaf_count": 36
                                        }
                                    }
                                }
                            }
                        }
                    },
                    "missing_type": "None",
                    "default_left": true,
                    "left_child": {
                        "split_index": 4,
                        "threshold": 0.8205000000000001,
                        "internal_count": 1204,
                        "decision_type": "<=",
                        "internal_value": -0.20522626341573494,
                        "split_feature": 5,
                        "split_gain": 40.43774925226418,
                        "right_child": {
                            "split_index": 18,
                            "threshold": 1.3665,
                            "internal_count": 392,
                            "decision_type": "<=",
                            "internal_value": 0.32259103071208095,
                            "split_feature": 5,
                            "split_gain": 12.375933126083877,
                            "right_child": {
                                "leaf_value": 0.05602373736163179,
                                "leaf_index": 19,
                                "leaf_count": 65
                            },
                            "missing_type": "None",
                            "default_left": true,
                            "left_child": {
                                "leaf_value": 0.008206791685407331,
                                "leaf_index": 5,
                                "leaf_count": 327
                            }
                        },
                        "missing_type": "None",
                        "default_left": true,
                        "left_child": {
                            "split_index": 15,
                            "threshold": 0.7725000000000001,
                            "internal_count": 812,
                            "decision_type": "<=",
                            "internal_value": -0.4600660068168345,
                            "split_feature": 26,
                            "split_gain": 13.156444526735683,
                            "right_child": {
                                "split_index": 20,
                                "threshold": 0.03750000000000001,
                                "internal_count": 171,
                                "decision_type": "<=",
                                "internal_value": 0.03316112430560914,
                                "split_feature": 18,
                                "split_gain": 11.135827974013258,
                                "right_child": {
                                    "leaf_value": 0.03089757851060151,
                                    "leaf_index": 21,
                                    "leaf_count": 74
                                },
                                "missing_type": "None",
                                "default_left": true,
                                "left_child": {
                                    "split_index": 21,
                                    "threshold": 0.7335000000000002,
                                    "internal_count": 97,
                                    "decision_type": "<=",
                                    "internal_value": -0.4128717032328301,
                                    "split_feature": 27,
                                    "split_gain": 10.839313281775398,
                                    "right_child": {
                                        "leaf_value": -0.053063926775696116,
                                        "leaf_index": 22,
                                        "leaf_count": 50
                                    },
                                    "missing_type": "None",
                                    "default_left": true,
                                    "left_child": {
                                        "leaf_value": 0.013867031209414843,
                                        "leaf_index": 16,
                                        "leaf_count": 47
                                    }
                                }
                            },
                            "missing_type": "None",
                            "default_left": true,
                            "left_child": {
                                "split_index": 22,
                                "threshold": 0.7185000000000001,
                                "internal_count": 641,
                                "decision_type": "<=",
                                "internal_value": -0.5916318822336044,
                                "split_feature": 24,
                                "split_gain": 10.770387082324412,
                                "right_child": {
                                    "leaf_value": -0.04068945666220582,
                                    "leaf_index": 23,
                                    "leaf_count": 370
                                },
                                "missing_type": "None",
                                "default_left": true,
                                "left_child": {
                                    "split_index": 29,
                                    "threshold": 0.8035000000000001,
                                    "internal_count": 271,
                                    "decision_type": "<=",
                                    "internal_value": -0.2887232152656793,
                                    "split_feature": 19,
                                    "split_gain": 10.103463367070098,
                                    "right_child": {
                                        "leaf_value": -0.04376483944144892,
                                        "leaf_index": 30,
                                        "leaf_count": 82
                                    },
                                    "missing_type": "None",
                                    "default_left": true,
                                    "left_child": {
                                        "leaf_value": -0.0017183605192146038,
                                        "leaf_index": 0,
                                        "leaf_count": 189
                                    }
                                }
                            }
                        }
                    }
                }
            },
            "num_leaves": 31,
            "shrinkage": 0.05,
            "tree_index": 2,
            "num_cat": 0
        },
        {
            "tree_structure": {
                "split_index": 0,
                "threshold": 1.0565000000000002,
                "internal_count": 5600,
                "decision_type": "<=",
                "internal_value": 0,
                "split_feature": 25,
                "split_gain": 205.08573392367197,
                "right_child": {
                    "split_index": 4,
                    "threshold": 1.4915,
                    "internal_count": 1643,
                    "decision_type": "<=",
                    "internal_value": -0.47802524275486036,
                    "split_feature": 25,
                    "split_gain": 43.25128878692101,
                    "right_child": {
                        "split_index": 17,
                        "threshold": 1.8335000000000004,
                        "internal_count": 695,
                        "decision_type": "<=",
                        "internal_value": -0.8578680976698273,
                        "split_feature": 3,
                        "split_gain": 15.874617870176948,
                        "right_child": {
                            "leaf_value": -0.09225670479368792,
                            "leaf_index": 18,
                            "leaf_count": 60
                        },
                        "missing_type": "None",
                        "default_left": true,
                        "left_child": {
                            "split_index": 20,
                            "threshold": 2.1615000000000006,
                            "internal_count": 635,
                            "decision_type": "<=",
                            "internal_value": -0.7649720677497008,
                            "split_feature": 17,
                            "split_gain": 13.166280615669734,
                            "right_child": {
                                "leaf_value": 0.020573802512726846,
                                "leaf_index": 21,
                                "leaf_count": 36
                            },
                            "missing_type": "None",
                            "default_left": true,
                            "left_child": {
                                "leaf_value": -0.041785668969778644,
                                "leaf_index": 5,
                                "leaf_count": 599
                            }
                        }
                    },
                    "missing_type": "None",
                    "default_left": true,
                    "left_child": {
                        "split_index": 11,
                        "threshold": 1.0025000000000002,
                        "internal_count": 948,
                        "decision_type": "<=",
                        "internal_value": -0.2000237527691139,
                        "split_feature": 22,
                        "split_gain": 24.154672407158372,
                        "right_child": {
                            "leaf_value": 0.010369657512542796,
                            "leaf_index": 12,
                            "leaf_count": 361
                        },
                        "missing_type": "None",
                        "default_left": true,
                        "left_child": {
                            "split_index": 12,
                            "threshold": 1.0445000000000002,
                            "internal_count": 587,
                            "decision_type": "<=",
                            "internal_value": -0.45071162545522736,
                            "split_feature": 27,
                            "split_gain": 24.699999506377633,
                            "right_child": {
                                "leaf_value": -0.058930697624175236,
                                "leaf_index": 13,
                                "leaf_count": 142
                            },
                            "missing_type": "None",
                            "default_left": true,
                            "left_child": {
                                "split_index": 15,
                                "threshold": 0.9155000000000001,
                                "internal_count": 445,
                                "decision_type": "<=",
                                "internal_value": -0.21894491734506816,
                                "split_feature": 5,
                                "split_gain": 21.584496572175727,
                                "right_child": {
                                    "split_index": 19,
                                    "threshold": 0.7365,
                                    "internal_count": 198,
                                    "decision_type": "<=",
                                    "internal_value": 0.2734323467481901,
                                    "split_feature": 22,
                                    "split_gain": 13.975517411728632,
                                    "right_child": {
                                        "leaf_value": 0.0024373294029247663,
                                        "leaf_index": 20,
                                        "leaf_count": 168
                                    },
                                    "missing_type": "None",
                                    "default_left": true,
                                    "left_child": {
                                        "leaf_value": 0.07660820368456182,
                                        "leaf_index": 16,
                                        "leaf_count": 30
                                    }
                                },
                                "missing_type": "None",
                                "default_left": true,
                                "left_child": {
                                    "leaf_value": -0.030684626979322106,
                                    "leaf_index": 1,
                                    "leaf_count": 247
                                }
                            }
                        }
                    }
                },
                "missing_type": "None",
                "default_left": true,
                "left_child": {
                    "split_index": 1,
                    "threshold": 0.7805000000000001,
                    "internal_count": 3957,
                    "decision_type": "<=",
                    "internal_value": 0.3638328087996373,
                    "split_feature": 26,
                    "split_gain": 146.16144454488222,
                    "right_child": {
                        "split_index": 2,
                        "threshold": 0.9045000000000002,
                        "internal_count": 2967,
                        "decision_type": "<=",
                        "internal_value": 0.5863947389533241,
                        "split_feature": 27,
                        "split_gain": 119.08009362632083,
                        "right_child": {
                            "split_index": 5,
                            "threshold": 0.6235,
                            "internal_count": 1278,
                            "decision_type": "<=",
                            "internal_value": 0.12566869777819548,
                            "split_feature": 25,
                            "split_gain": 39.21913983395228,
                            "right_child": {
                                "split_index": 7,
                                "threshold": 1.0065000000000002,
                                "internal_count": 992,
                                "decision_type": "<=",
                                "internal_value": 0.31404061852130455,
                                "split_feature": 24,
                                "split_gain": 28.853867130797244,
                                "right_child": {
                                    "split_index": 14,
                                    "threshold": 1.6740000000000002,
                                    "internal_count": 619,
                                    "decision_type": "<=",
                                    "internal_value": 0.5790836871748706,
                                    "split_feature": 3,
                                    "split_gain": 22.63180987452303,
                                    "right_child": {
                                        "leaf_value": -0.007972346182267808,
                                        "leaf_index": 15,
                                        "leaf_count": 131
                                    },
                                    "missing_type": "None",
                                    "default_left": true,
                                    "left_child": {
                                        "split_index": 18,
                                        "threshold": 1.2445000000000002,
                                        "internal_count": 488,
                                        "decision_type": "<=",
                                        "internal_value": 0.7775094554073074,
                                        "split_feature": 5,
                                        "split_gain": 14.787886856839947,
                                        "right_child": {
                                            "leaf_value": 0.06780140768006958,
                                            "leaf_index": 19,
                                            "leaf_count": 130
                                        },
                                        "missing_type": "None",
                                        "default_left": true,
                                        "left_child": {
                                            "leaf_value": 0.028376256544509988,
                                            "leaf_index": 8,
                                            "leaf_count": 358
                                        }
                                    }
                                },
                                "missing_type": "None",
                                "default_left": true,
                                "left_child": {
                                    "split_index": 8,
                                    "threshold": 0.9995000000000002,
                                    "internal_count": 373,
                                    "decision_type": "<=",
                                    "internal_value": -0.12582824431112336,
                                    "split_feature": 22,
                                    "split_gain": 55.919027362891214,
                                    "right_child": {
                                        "leaf_value": 0.02656163313694614,
                                        "leaf_index": 9,
                                        "leaf_count": 217
                                    },
                                    "missing_type": "None",
                                    "default_left": true,
                                    "left_child": {
                                        "leaf_value": -0.052018973324598684,
                                        "leaf_index": 6,
                                        "leaf_count": 156
                                    }
                                }
                            },
                            "missing_type": "None",
                            "default_left": true,
                            "left_child": {
                                "split_index": 21,
                                "threshold": 1.0475,
                                "internal_count": 286,
                                "decision_type": "<=",
                                "internal_value": -0.5271947860821624,
                                "split_feature": 21,
                                "split_gain": 12.394306028333421,
                                "right_child": {
                                    "leaf_value": 0.0003779905935588941,
                                    "leaf_index": 22,
                                    "leaf_count": 108
                                },
                                "missing_type": "None",
                                "default_left": true,
                                "left_child": {
                                    "leaf_value": -0.04258828296209528,
                                    "leaf_index": 3,
                                    "leaf_count": 178
                                }
                            }
                        },
                        "missing_type": "None",
                        "default_left": true,
                        "left_child": {
                            "split_index": 3,
                            "threshold": 0.6785000000000001,
                            "internal_count": 1689,
                            "decision_type": "<=",
                            "internal_value": 0.9361385921607495,
                            "split_feature": 25,
                            "split_gain": 47.97643681936694,
                            "right_child": {
                                "split_index": 6,
                                "threshold": 0.8695000000000002,
                                "internal_count": 1291,
                                "decision_type": "<=",
                                "internal_value": 1.124214609506405,
                                "split_feature": 26,
                                "split_gain": 30.629403254849876,
                                "right_child": {
                                    "leaf_value": 0.06727919096467332,
                                    "leaf_index": 7,
                                    "leaf_count": 854
                                },
                                "missing_type": "None",
                                "default_left": true,
                                "left_child": {
                                    "split_index": 9,
                                    "threshold": 0.7825000000000001,
                                    "internal_count": 437,
                                    "decision_type": "<=",
                                    "internal_value": 0.6928418236815986,
                                    "split_feature": 27,
                                    "split_gain": 27.14549838319835,
                                    "right_child": {
                                        "split_index": 23,
                                        "threshold": -0.03949999999999999,
                                        "internal_count": 148,
                                        "decision_type": "<=",
                                        "internal_value": -0.0040105352065735195,
                                        "split_feature": 4,
                                        "split_gain": 11.495407289762516,
                                        "right_child": {
                                            "leaf_value": 0.02732508415913451,
                                            "leaf_index": 24,
                                            "leaf_count": 75
                                        },
                                        "missing_type": "None",
                                        "default_left": true,
                                        "left_child": {
                                            "split_index": 24,
                                            "threshold": 0.8135000000000001,
                                            "internal_count": 73,
                                            "decision_type": "<=",
                                            "internal_value": -0.5695150597335739,
                                            "split_feature": 25,
                                            "split_gain": 13.669252858997023,
                                            "right_child": {
                                                "leaf_value": -0.05600777791200845,
                                                "leaf_index": 25,
                                                "leaf_count": 52
                                            },
                                            "missing_type": "None",
                                            "default_left": true,
                                            "left_child": {
                                                "leaf_value": 0.039668472977595196,
                                                "leaf_index": 10,
                                                "leaf_count": 21
                                            }
                                        }
                                    },
                                    "missing_type": "None",
                                    "default_left": true,
                                    "left_child": {
                                        "split_index": 16,
                                        "threshold": 0.9485000000000001,
                                        "internal_count": 289,
                                        "decision_type": "<=",
                                        "internal_value": 1.050948821318668,
                                        "split_feature": 25,
                                        "split_gain": 17.27465101223403,
                                        "right_child": {
                                            "leaf_value": -0.00601661519615231,
                                            "leaf_index": 17,
                                            "leaf_count": 43
                                        },
                                        "missing_type": "None",
                                        "default_left": true,
                                        "left_child": {
                                            "leaf_value": 0.06281031178276902,
                                            "leaf_index": 4,
                                            "leaf_count": 246
                                        }
                                    }
                                }
                            },
                            "missing_type": "None",
                            "default_left": true,
                            "left_child": {
                                "split_index": 25,
                                "threshold": 0.9615000000000001,
                                "internal_count": 398,
                                "decision_type": "<=",
                                "internal_value": 0.32892374704629956,
                                "split_feature": 13,
                                "split_gain": 10.814215857490451,
                                "right_child": {
                                    "split_index": 29,
                                    "threshold": 0.8655,
                                    "internal_count": 102,
                                    "decision_type": "<=",
                                    "internal_value": 0.8913800115419801,
                                    "split_feature": 21,
                                    "split_gain": 10.32050769824459,
                                    "right_child": {
                                        "leaf_value": 0.06809881544094587,
                                        "leaf_index": 30,
                                        "leaf_count": 66
                                    },
                                    "missing_type": "None",
                                    "default_left": true,
                                    "left_child": {
                                        "leaf_value": 0.0014538635690639285,
                                        "leaf_index": 26,
                                        "leaf_count": 36
                                    }
                                },
                                "missing_type": "None",
                                "default_left": true,
                                "left_child": {
                                    "split_index": 26,
                                    "threshold": 0.8405000000000001,
                                    "internal_count": 296,
                                    "decision_type": "<=",
                                    "internal_value": 0.1353944767731912,
                                    "split_feature": 27,
                                    "split_gain": 12.497381624297827,
                                    "right_child": {
                                        "leaf_value": -0.0285103893281908,
                                        "leaf_index": 27,
                                        "leaf_count": 75
                                    },
                                    "missing_type": "None",
                                    "default_left": true,
                                    "left_child": {
                                        "split_index": 28,
                                        "threshold": 0.8225000000000001,
                                        "internal_count": 221,
                                        "decision_type": "<=",
                                        "internal_value": 0.3750150910944622,
