tree
num_class=1
num_tree_per_iteration=1
label_index=0
max_feature_idx=27
objective=binary sigmoid:1
feature_names=Column_0 Column_1 Column_2 Column_3 Column_4 Column_5 Column_6 Column_7 Column_8 Column_9 Column_10 Column_11 Column_12 Column_13 Column_14 Column_15 Column_16 Column_17 Column_18 Column_19 Column_20 Column_21 Column_22 Column_23 Column_24 Column_25 Column_26 Column_27
feature_infos=[0.27500000000000002:6.6950000000000003] [-2.4169999999999998:2.4300000000000002] [-1.7430000000000001:1.7430000000000001] [0.019:5.7000000000000002] [-1.7430000000000001:1.7430000000000001] [0.159:4.1900000000000004] [-2.9410000000000003:2.9700000000000002] [-1.7409999999999999:1.7409999999999999] [0:2.173] [0.19:5.1929999999999996] [-2.9039999999999999:2.9089999999999998] [-1.742:1.7430000000000001] [0:2.2149999999999999] [0.26400000000000001:6.5229999999999997] [-2.7280000000000002:2.7269999999999999] [-1.742:1.742] [0:2.548] [0.36499999999999999:6.0679999999999996] [-2.4950000000000001:2.496] [-1.74:1.7430000000000001] [0:3.1019999999999999] [0.17199999999999999:13.097999999999999] [0.41899999999999998:7.3920000000000003] [0.46100000000000002:3.6819999999999999] [0.38400000000000001:6.5829999999999993] [0.093000000000000013:7.8600000000000003] [0.38900000000000001:4.5430000000000001] [0.48899999999999999:4.3159999999999998]

Tree=0
num_leaves=31
num_cat=0
split_feature=25 26 27 25 25 24 22 5 5 27 26 27 25 26 27 24 3 25 13 3 22 19 5 24 4 4 25 24 13 24
split_gain=257.05504144977834 164.48120636837106 154.15294644144791 62.978179622205857 70.542638386226713 52.555365013671839 83.933734046461822 35.882753877555167 33.473928724249646 27.7994563921606 27.707943214821171 26.485653743525347 25.97676654588679 22.037843051377234 21.856713808127012 33.647255917153245 17.886983613559984 17.32991543764733 16.213031251869726 15.136119680946312 14.411938920172719 15.331564986737396 14.181323916820805 13.395714621949764 12.686845492815642 13.668520388866028 12.618151632540123 12.659340659340659 12.28102489128206 14.386191402320433
threshold=1.2815000000000001 0.78050000000000008 0.90450000000000019 0.98450000000000015 0.6785000000000001 1.0265000000000002 1.0445000000000002 0.82550000000000001 1.0195000000000003 0.9225000000000001 0.86950000000000016 0.78850000000000009 0.62350000000000005 0.88850000000000018 0.88950000000000007 1.1225000000000003 1.9205000000000003 0.98950000000000016 1.3835000000000004 1.8335000000000004 0.94750000000000012 -0.96449999999999991 1.3365000000000002 0.71850000000000014 1.2535000000000001 -0.27149999999999996 0.58650000000000013 0.74550000000000016 0.96150000000000013 0.75150000000000006
decision_type=2 2 2 2 2 2 2 2 2 2 2 2 2 2 2 2 2 2 2 2 2 2 2 2 2 2 2 2 2 2
left_child=1 7 3 4 28 6 -4 23 13 22 11 -6 -7 -5 20 -16 17 -14 -19 -17 -2 -22 26 -1 25 -8 27 -9 29 -3
right_child=14 2 5 8 10 12 24 9 -10 -11 -12 -13 16 -15 15 19 -18 18 -20 -21 21 -23 -24 -25 -26 -27 -28 -29 -30 -31
leaf_value=-0.014487632508833923 -0.03553719008264463 0.051612903225806452 -0.055700325732899028 -0.037984496124031014 0.063176895306859202 -0.018012422360248449 0.0037037037037037038 0.0066666666666666654 0.057142857142857141 -0.10000000000000001 0.079227696404793616 0.0060869565217391312 0.043107221006564556 0.017721518987341773 -0.06540284360189573 -0.016049382716049384 -0.014583333333333335 -0.0024630541871921187 0.05789473684210527 -0.07192982456140351 -0.053846153846153821 0.033333333333333333 0.061403508771929828 -0.042787286063569685 -0.031818181818181822 0.048872180451127817 0.026618705035971225 -0.061904761904761907 0.049019607843137254 -0.0025641025641025641
leaf_count=283 121 62 307 129 277 161 135 75 112 22 751 115 457 158 422 324 96 203 57 57 26 90 57 409 44 133 139 42 102 234
internal_value=0 0.34035087719298246 0.54514576846872342 0.92371134020618562 1.1070733290071382 0.084118016321406155 -0.37156704361873988 -0.36416747809152872 0.21553884711779447 0.17313432835820897 1.3595800524934383 0.9285714285714286 0.37371663244353182 -0.14634146341463414 -0.7615384615384615 -0.9190535491905355 0.51906519065190648 0.62761506276150625 0.2153846153846154 -0.48818897637795278 -0.22784810126582278 0.27586206896551724 0.32587859424920129 -0.62427745664739887 0.35897435897435898 0.52238805970149249 0.125 -0.35897435897435898 0.38190954773869346 0.17567567567567569
internal_count=5600 4560 3533 1940 1541 1593 619 1027 399 335 1143 392 974 287 1040 803 813 717 260 381 237 116 313 692 312 268 256 117 398 296
shrinkage=0.05


Tree=1
num_leaves=31
num_cat=0
split_feature=25 26 25 25 3 5 22 5 26 22 22 26 22 3 26 24 9 25 3 5 24 26 19 13 9 19 24 5 23 3
split_gain=232.13966682420568 148.83767691418672 79.267774432365258 117.4678041009152 38.001166330818307 33.896385799442797 19.949543696038035 19.301237194435714 21.554280467081128 18.531835679118558 19.016234810066148 17.741236988146113 20.198780467851378 15.812687992859587 14.21321021300059 13.271451172233753 12.730573466180324 12.701379525247047 12.375124107382959 12.227312084894585 11.552063973906218 11.49624437152389 11.792923279893067 11.481274030283238 11.230078946756642 10.078163890536723 9.9416464989418216 9.3565107131453011 9.3204961227527061 10.594295114507609
threshold=1.2815000000000001 0.77650000000000008 0.62350000000000005 0.98950000000000016 1.6175000000000004 0.82550000000000001 1.0445000000000002 0.88150000000000006 1.0375000000000003 1.0025000000000002 0.84950000000000014 0.97650000000000003 0.78450000000000009 0.97650000000000003 0.94950000000000012 0.71850000000000014 0.89250000000000018 2.0390000000000006 1.1435000000000002 1.5755000000000001 1.7450000000000003 1.1205000000000003 0.62900000000000011 0.73250000000000004 0.81850000000000012 1.0425000000000002 1.1005000000000003 0.98050000000000004 0.98050000000000004 0.33650000000000008
decision_type=2 2 2 2 2 2 2 2 2 2 2 2 2 2 2 2 2 2 2 2 2 2 2 2 2 2 2 2 2 2
left_child=1 5 19 4 7 15 11 18 -9 10 -5 24 -13 -7 27 25 -15 -8 -4 -3 23 -16 -23 -6 -2 28 -14 -11 -1 -30
right_child=6 2 3 9 20 13 17 8 -10 14 -12 12 26 16 21 -17 -18 -19 -20 -21 -22 22 -24 -25 -26 -27 -28 -29 29 -31
leaf_value=-0.064496406024585437 -0.057709947939610109 -0.012343081404711853 0.046144971691278742 0.010891079506783787 0.046717290064776346 0.026422648565555752 -0.005361413113491433 0.070715866167414848 0.038544811960196532 -0.042395840530695339 -0.028485674888581138 0.0005033236819142684 -0.071967234790915727 -0.043434966810990461 0.051884731499612528 -0.042241189160716126 0.022314618105371813 -0.048479111100609852 0.018297259245522241 0.038462174294838551 -0.049999690007492881 -0.0082869314030411829 0.053661654091943393 0.0023226244816229773 0.0064412539920411533 -0.051002445266993324 -0.043089054782898942 0.037897996234674464 0.062266091998230771 -0.0061725089723261755
leaf_count=23 39 534 688 216 89 198 258 636 310 53 284 61 300 79 123 399 47 93 208 52 28 102 44 169 91 58 198 20 26 174
internal_value=0 0.32353227284013519 0.51561190734317697 0.64832359910298698 0.89868015616894237 -0.35658392646209058 -0.72391006390497226 1.0040544972311776 1.2033935510881231 0.015940464546410304 -0.22950061414735978 -0.92168222794943422 -1.0765171107703515 0.17595366146360822 0.37475107160708526 -0.61026459373501485 -0.3781454159229739 -0.33570913803490182 0.79359712362636237 -0.15669864074650852 0.22020362598081503 0.58717078228467978 0.20762107966668408 0.35269903467989028 -0.25606438005094956 -0.27734215895244357 -1.209623985552079 -0.40806921066618423 -0.084171794421185622 0.054490183076924548
internal_count=5600 4560 3556 2970 2128 1004 1040 1842 946 842 500 689 559 324 342 680 126 351 896 586 286 269 146 258 130 281 498 73 223 200
shrinkage=0.05


Tree=2
num_leaves=31
num_cat=0
split_feature=27 26 24 22 5 3 5 22 27 26 26 22 22 22 24 26 26 27 5 18 18 27 24 24 22 1 4 26 13 19
split_gain=147.60440192851527 183.23640837942548 89.396753061001945 95.025731906013149 40.437749252264183 27.361747095192271 26.940623294049999 18.917452138620533 22.142902038375929 18.72848435890635 16.175657131791755 13.551498638296412 13.457119014942425 18.48302409987938 13.287562276310876 13.156444526735683 13.048048689469873 12.684715117253177 12.375933126083877 11.711834040725853 11.135827974013258 10.839313281775398 10.770387082324412 10.727021891288658 12.223160520724861 10.66927341440574 10.465320191903558 15.414294478301965 10.180754735732862 10.103463367070098
threshold=0.90250000000000019 0.81150000000000011 1.0265000000000002 1.0445000000000002 0.82050000000000012 1.9205000000000003 0.89650000000000007 1.0355000000000001 0.83850000000000013 1.3665 1.2195000000000003 1.5530000000000002 1.0465000000000002 0.74450000000000016 0.78250000000000008 0.77250000000000008 0.89850000000000019 1.0885000000000002 1.3665 -0.80349999999999988 0.037500000000000012 0.73350000000000015 0.71850000000000014 0.73550000000000015 0.8015000000000001 -0.50249999999999984 -1.2844999999999998 0.86050000000000015 0.78050000000000008 0.8035000000000001
decision_type=2 2 2 2 2 2 2 2 2 2 2 2 2 2 2 2 2 2 2 2 2 2 2 2 2 2 2 2 2 2
left_child=1 4 3 17 15 12 7 8 26 14 25 -11 13 -4 28 22 -10 23 -6 -13 21 -17 29 -2 -25 -7 27 -3 -5 -1
right_child=2 6 5 9 18 10 -8 -9 16 11 -12 19 -14 -15 -16 20 -18 -19 -20 -21 -22 -23 -24 24 -26 -27 -28 -29 -30 -31
leaf_value=-0.0017183605192146038 -0.010913576627317375 -0.050454533877830887 0.04262322754930032 -0.00489901366878786 0.0082067916854073313 0.047732682413330396 0.051670426822257948 0.053826258478114702 -0.041970675968428066 -0.078470743179650568 -0.060119657971085073 -0.057419069787109402 0.021265591113051152 -0.0058477353555142809 -0.00028009770138282116 0.013867031209414843 0.010162108398462578 -0.081360508003184631 0.056023737361631791 0.015257552015167165 0.030897578510601511 -0.053063926775696116 -0.040689456662205817 -0.015320437252116518 -0.066841943537329029 -0.028306053317168536 0.037170399462386733 0.037850179482763813 0.065907689016546492 -0.043764839441448919
leaf_count=189 58 36 90 29 327 30 934 224 68 41 98 34 526 630 203 47 164 207 65 64 74 50 370 56 261 48 483 44 68 82
internal_value=0 0.40867427701203785 -0.24661993858559503 -0.69860097298816304 -0.20522626341573494 0.077683023933293072 0.787609825258478 0.56257010930479678 0.41780599103588456 0.0041892330457565276 -0.66087166206873638 -0.60312376413307434 0.18201344745792919 0.0042475650242419305 0.28551144038729598 -0.46006600681683452 -0.10254443355640082 -1.2292832970979233 0.32259103071208095 -0.19900147539069707 0.033161124305609142 -0.41287170323283012 -0.59163188223360441 -1.00969947460203 -1.1545872978126714 0.018728456686710439 0.63231089189697443 -0.038274879642604773 0.89477895534148766 -0.28872321526567929
internal_count=5600 3157 2443 1021 1204 1422 1953 1019 795 439 176 139 1246 720 300 812 232 582 392 98 171 97 641 375 317 78 563 80 97 271
shrinkage=0.05


Tree=3
num_leaves=31
num_cat=0
split_feature=25 26 27 25 25 25 26 24 22 27 5 22 27 27 3 5 25 3 5 22 17 21 6 4 25 13 27 27 24 21
split_gain=205.08573392367197 146.16144454488222 119.08009362632083 47.976436819366938 43.251288786921009 39.219139833952283 30.629403254849876 28.853867130797244 55.919027362891214 27.145498383198351 26.02827402586616 24.154672407158372 24.699999506377633 24.135968567840248 22.631809874523029 21.584496572175727 17.274651012234031 15.874617870176948 14.787886856839947 13.975517411728632 13.166280615669734 12.394306028333421 12.121786579020693 11.495407289762516 13.669252858997023 10.814215857490451 12.497381624297827 10.517334440966646 10.331379779355522 10.32050769824459
threshold=1.0565000000000002 0.78050000000000008 0.90450000000000019 0.6785000000000001 1.4915 0.62350000000000005 0.86950000000000016 1.0065000000000002 0.99950000000000017 0.78250000000000008 0.82550000000000001 1.0025000000000002 1.0445000000000002 0.75650000000000006 1.6740000000000002 0.91550000000000009 0.94850000000000012 1.8335000000000004 1.2445000000000002 0.73650000000000004 2.1615000000000006 1.0475000000000001 -1.2374999999999998 -0.039499999999999993 0.81350000000000011 0.96150000000000013 0.84050000000000014 0.9225000000000001 0.82250000000000012 0.86550000000000005
decision_type=2 2 2 2 2 2 2 2 2 2 2 2 2 2 2 2 2 2 2 2 2 2 2 2 2 2 2 2 2 2
left_child=1 10 3 25 11 21 9 8 -7 16 -1 12 15 22 18 -2 -5 20 -9 -17 -6 -4 -12 24 -11 26 28 -15 -3 -27
right_child=4 2 5 6 17 7 -8 14 -10 23 13 -13 -14 27 -16 19 -18 -19 -20 -21 -22 -23 -24 -25 -26 29 -28 -29 -30 -31
leaf_value=-0.026414717136589289 -0.030684626979322106 0.045620777377964605 -0.042588282962095277 0.062810311782769024 -0.041785668969778644 -0.052018973324598684 0.067279190964673316 0.028376256544509988 0.02656163313694614 0.039668472977595196 -0.041660555681293898 0.010369657512542796 -0.058930697624175236 -0.015064140634141283 -0.0079723461822678084 0.076608203684561824 -0.00601661519615231 -0.092256704793687916 0.067801407680069578 0.0024373294029247663 0.020573802512726846 0.00037799059355889412 0.035118867361690863 0.027325084159134511 -0.05600777791200845 0.0014538635690639285 -0.028510389328190801 -0.09313292754176794 0.0013298913816042345 0.06809881544094587
leaf_count=667 247 87 178 246 599 156 854 358 217 21 23 361 142 82 131 30 43 60 130 168 36 108 196 75 52 36 75 22 134 66
internal_value=0 0.36383280879963731 0.58639473895332406 0.93613859216074946 -0.47802524275486036 0.12566869777819548 1.1242146095064049 0.31404061852130455 -0.12582824431112336 0.69284182368159863 -0.30226525773711366 -0.20002375276911391 -0.45071162545522736 0.16409552287309323 0.57908368717487058 -0.21894491734506816 1.050948821318668 -0.8578680976698273 0.77750945540730743 0.27343234674819011 -0.76497206774970083 -0.52719478608216241 0.54102515635726656 -0.0040105352065735195 -0.56951505973357386 0.32892374704629956 0.13539447677319119 -0.63029088042569614 0.37501509109446218 0.8913800115419801
internal_count=5600 3957 2967 1689 1643 1278 1291 992 373 437 990 948 587 323 619 445 289 695 488 198 635 286 219 148 73 398 296 104 221 102
shrinkage=0.05


Tree=4
num_leaves=31
num_cat=0
split_feature=25 26 27 25 25 25 26 24 22 27 5 27 22 27 3 5 25 3 24 17 0 25 5 22 5 25 21 5 5 11
split_gain=185.56071699672634 132.38470116816677 108.27247630932948 43.848633638606202 39.219301341696749 35.445563689840213 28.084221062319045 26.094537235847028 48.999568811521257 24.688892406735498 23.522125098304539 21.904079885316779 21.832721490390384 22.421529713371523 19.757189986373461 19.498725259169724 15.745569649070191 14.650381242795575 12.847463163174609 16.248717957484136 14.469533901086237 12.936425625840364 12.692434891790484 12.679700776775157 12.206682401009157 12.033729414033401 12.420295160524603 11.380751480884484 10.879119582170336 10.740917131325416
threshold=1.0565000000000002 0.78050000000000008 0.90450000000000019 0.6785000000000001 1.4915 0.62350000000000005 0.86950000000000016 1.0185000000000002 0.99950000000000017 0.78250000000000008 0.82550000000000001 0.9225000000000001 1.0025000000000002 1.0445000000000002 1.6740000000000002 0.91550000000000009 0.94850000000000012 1.8335000000000004 1.3545000000000003 1.5825000000000002 1.1075000000000002 2.0390000000000006 1.2445000000000002 0.73650000000000004 1.3365000000000002 0.58650000000000013 0.82650000000000012 1.5755000000000001 1.2105000000000001 -0.39449999999999991
decision_type=2 2 2 2 2 2 2 2 2 2 2 2 2 2 2 2 2 2 2 2 2 2 2 2 2 2 2 2 2 2
left_child=1 10 3 -3 12 27 9 8 -7 16 -1 24 13 15 22 -2 -5 18 20 -20 21 28 -9 -17 25 26 -12 -4 -6 -16
right_child=4 2 5 6 17 7 -8 14 -10 -11 11 -13 -14 -15 29 23 -18 -19 19 -21 -22 -23 -24 -25 -26 -27 -28 -29 -30 -31
leaf_value=-0.025128269330885356 -0.02917715751274217 0.015645239304992242 -0.032886482320910841 0.060017636699597893 -0.036992854810402494 -0.04861584033768232 0.064348641521330935 0.027347380500727561 0.024467014761674663 -0.00018974026652187806 -0.064097807344544636 -0.089302121497970857 0.0098524975913638832 -0.056191609184488761 0.02836942774242962 0.073089460618943669 -0.0057145451245664159 -0.088536077681442393 -0.02811664452082227 0.052735947673749631 -0.073208446797252621 -0.068258840025533243 0.064201852887084979 0.0023154633679463073 0.057083148923001453 0.026401704097516139 0.0050552894310381177 0.025926084241552096 0.0056395977334061974 -0.030346450822049831
leaf_count=667 247 398 248 246 190 157 854 354 223 148 39 22 361 142 52 30 43 60 112 32 128 85 128 168 56 128 78 38 88 78
internal_value=0 0.3466506076699265 0.55895608429860355 0.89348385157238341 -0.45493537703742748 0.11957704924164377 1.0740754155594978 0.29886739317149585 -0.11357444312279494 0.66053742666541826 -0.28754990472891906 0.15608493781686672 -0.19021727198534275 -0.42882416004331836 0.55494403808033121 -0.20815709907395805 1.0033412096943952 -0.81726709793887697 -0.728253259452326 -0.20278818428118461 -0.88311530198393318 -0.6789021521159031 0.74219525894081462 0.25994626056341941 0.2961891876075452 0.10390090228256921 -0.35992069918079622 -0.50131330362180004 -0.46999046803354028 -0.1372602855416197
internal_count=5600 3957 2967 1689 1643 1278 1291 992 380 437 990 323 948 587 612 445 289 695 635 144 491 363 482 198 301 245 117 286 278 130
shrinkage=0.05


Tree=5
num_leaves=31
num_cat=0
split_feature=25 25 26 26 25 22 9 5 5 25 9 0 24 21 22 0 21 13 22 3 0 24 24 3 14 1 9 5 26 24
split_gain=190.97330807016868 122.41049492068231 75.602912764231405 34.250090058890635 32.729195193398809 30.679893338496822 28.494158403315758 27.873323399176694 19.931204737447274 23.062708084563667 16.238278228644969 14.28393024303665 13.151395810281471 12.376544412185524 15.05256386530165 12.348671343233892 12.318487450881996 15.499708476123846 14.062541967562815 12.155034230425123 12.543170771482977 10.886195480015072 10.851409647408303 10.528783729612954 10.40505066097494 10.019301254370205 10.005862687279603 9.9201685449831984 10.532359202402084 9.8465913235940121
threshold=1.0675000000000001 0.66550000000000009 0.77650000000000008 1.0825000000000002 1.5695000000000003 1.0265000000000002 1.1375000000000002 0.85250000000000015 0.88150000000000006 0.96550000000000014 1.6925000000000001 2.2790000000000004 0.97750000000000015 1.2085000000000001 1.0375000000000003 2.4065000000000007 0.83050000000000013 0.9405 0.70650000000000013 0.45550000000000007 1.3615000000000002 1.2355000000000003 0.6705000000000001 1.8335000000000004 1.2275000000000003 1.1045000000000003 0.8005000000000001 1.1135000000000004 0.90950000000000009 2.1485000000000007
decision_type=2 2 2 2 2 2 2 2 2 2 2 2 2 2 2 2 2 2 2 2 2 2 2 2 2 2 2 2 2 2
left_child=1 6 7 8 5 12 16 24 9 13 15 -10 22 14 25 -5 18 27 -1 20 -20 -19 -2 29 -3 -4 -27 -18 -29 -6
right_child=4 2 3 10 23 -7 -8 -9 11 -11 -12 -13 -14 -15 -16 -17 17 21 19 -21 -22 -23 -24 -25 -26 26 -28 28 -30 -31
leaf_value=0.011943082353217609 0.0080055658734675805 -0.03892285082165086 0.040980075275045103 0.011017462963697492 -0.043125823896216761 0.0094897877021963284 0.022206922524682163 0.027574317900218304 0.056244644192617432 -0.0061155710764487867 0.058084486080160605 -0.0046711117403301387 -0.012295479027468208 -0.0032065360598147611 0.072129302335916495 -0.061283258943438126 -0.024310217360049451 0.021556452910205103 0.059244421466486077 -0.048886341456536482 -0.047916124274115908 -0.041430134252922864 -0.046129212816762466 -0.085391202683917103 0.021262885688319376 -0.026232825514080682 0.044820810577559225 0.053635295436525399 -0.032053433775857169 0.01790126498988813
leaf_count=62 42 231 439 478 499 351 234 116 798 138 73 41 329 65 140 25 424 197 23 255 21 32 325 58 33 49 34 36 24 28
internal_value=0 0.31160657258657554 0.56001605627790174 0.69899801892089108 -0.50433200489914887 -0.29253769902624865 -0.18985516420186582 -0.26776654122102728 0.84312036705355797 0.62903231550866645 0.27664945443787697 1.0650362295965323 -0.5367284051395419 0.77278663351359944 0.85529500989115292 0.14848609964054704 -0.32791799794830023 -0.17518348036629847 -0.62962833593797973 -0.80985249809527704 0.16329394739879111 0.25469547323518832 -0.79823020337392159 -0.88579585272367189 -0.6279047932455194 0.69819638052612276 0.057041920715479637 -0.37834354876968429 0.38479030933482311 -0.79723266034354778
internal_count=5600 3968 2660 2280 1632 1047 1308 380 1704 865 576 839 696 727 662 503 1074 713 361 299 44 229 367 585 264 522 83 484 60 527
shrinkage=0.05


Tree=6
num_leaves=31
num_cat=0
split_feature=27 26 22 24 5 5 27 22 22 27 0 27 26 10 24 27 22 27 1 6 24 22 22 20 24 0 9 10 0 21
split_gain=111.86146450717925 117.19512136272431 56.633014322692354 60.451180057628349 29.978104624100524 25.9993223209988 19.551273797927102 18.087326608167082 16.588236729829845 12.552542853668001 11.984884513384714 11.83025695750629 17.272999093986659 11.583892257932479 11.365087829537387 11.331112666794532 13.861327269533064 11.1258237741086 11.062897883457127 11.505107465927455 10.999090166720023 10.579741302056675 11.073746568586103 10.352870821576182 14.668513994144632 10.227300967872608 10.113918212598236 9.7025596821721027 9.7593188466703822 9.70053545031646
threshold=0.90650000000000008 0.81150000000000011 1.0325000000000002 1.0935000000000004 0.88150000000000006 0.82050000000000012 1.0105000000000002 0.75750000000000017 1.0605000000000002 1.0885000000000002 1.5645000000000002 0.82250000000000012 0.88850000000000018 -1.0664999999999998 1.0475000000000001 0.99050000000000005 0.87450000000000017 0.72650000000000003 1.7720000000000002 1.7735000000000003 0.73550000000000015 0.70650000000000013 0.95150000000000012 9.9999996826552254e-21 1.2565000000000002 1.6975000000000002 1.2125000000000001 0.65350000000000008 1.1775000000000002 0.91350000000000009
decision_type=2 2 2 2 2 2 2 2 2 2 2 2 2 2 2 2 2 2 2 2 2 2 2 2 2 2 2 2 2 2
left_child=1 5 3 9 8 10 26 -5 11 20 -1 13 -13 -3 -14 16 -9 -7 19 -8 29 -6 23 24 -23 -22 -4 28 -19 -2
right_child=2 4 6 7 21 17 18 15 -10 -11 -12 12 14 -15 -16 -17 -18 27 -20 -21 25 22 -24 -25 -26 -27 -28 -29 -30 -31
leaf_value=-0.022452282763578659 -0.034489319296799423 -0.013903614410846674 0.016385480198609494 0.033196129043668157 0.073759482856401853 0.026118811476527518 -0.003864758663105219 0.04548761796047858 0.048192084311922435 -0.067150876584649841 0.021266876024389106 -0.046127602497866849 -0.0091112683478143577 0.028412343911115967 0.036218783153784372 -0.022120277727888254 -0.012810496139933953 -0.001599253710724843 -0.058508677556366434 0.046770412592636861 -0.038286071342634544 0.011290407727771679 0.051974555761266528 0.051318239283353662 0.08175122167829077 -0.091481766002893136 0.061644852674287154 0.029546608597174437 -0.063202054188028267 0.049540507354685043
leaf_count=749 31 77 184 100 107 240 759 64 163 247 69 71 129 442 99 412 114 70 35 48 289 279 416 148 34 42 68 48 41 25
internal_value=0 0.31829083115994644 -0.25555063085065111 -0.53572617980125026 0.62386180681793535 -0.17025964517951198 0.082000039834370375 -0.12566522401406932 0.37515812526739989 -0.9862450151091261 -0.37528727056455297 0.2586720906060796 -0.05971587006473926 0.44266655467957572 0.21095174736363778 -0.25938902997314095 0.16324542394092209 0.2495346015697559 -0.064878821303556489 -0.016983037267631316 -0.76059278296131982 0.87344276777735275 0.80050608990501038 0.58498243007592832 0.37749662672606249 -0.90059947823530417 0.57209596784211136 -0.16185396976797517 -0.48794360247035273 0.061944703796106379
internal_count=5600 3182 2418 1324 1965 1217 1094 690 981 634 818 818 299 519 228 590 178 399 842 807 387 984 877 461 313 331 252 159 111 56
shrinkage=0.05


Tree=7
num_leaves=31
num_cat=0
split_feature=25 25 26 27 25 9 5 26 25 24 0 5 24 25 27 3 1 13 10 5 3 27 4 3 13 3 4 24 14 5
split_gain=169.51698732386146 107.51909499461983 65.614837600376063 59.218568030815362 28.171303051648763 24.771877506511323 23.772797808252903 23.158602128433188 26.700882657653004 18.930395905046598 16.965016809329981 17.962581878145606 16.032826847149042 14.624197917828539 14.047575446187139 13.083516665790761 12.071003845365983 11.738293533308433 11.456318867382105 11.189952429559494 10.959998298714083 10.425996270002251 10.272584363721876 9.9894330552921247 9.6429038002825944 10.383799472548905 11.750042986437544 9.6094909782190854 9.4307950191089631 9.4131650050068281
threshold=1.0675000000000001 0.66550000000000009 0.77650000000000008 0.90650000000000008 1.5585000000000002 1.1375000000000002 0.85250000000000015 0.86350000000000016 0.89550000000000007 0.97750000000000015 1.6975000000000002 1.2635000000000003 0.94450000000000012 0.96950000000000014 0.93850000000000011 1.9805000000000004 0.5495000000000001 1.3135000000000003 -0.47449999999999992 0.88450000000000017 1.7525000000000002 0.79950000000000021 -0.13099999999999998 1.8335000000000004 0.9405 0.34850000000000003 -0.56549999999999989 0.6755000000000001 1.2275000000000003 1.3365000000000002
decision_type=2 2 2 2 2 2 2 2 2 2 2 2 2 2 2 2 2 2 2 2 2 2 2 2 2 2 2 2 2 2
left_child=1 5 6 7 9 20 28 8 21 14 11 13 -12 -5 19 -13 -14 18 -11 27 24 -4 -23 -6 25 26 -1 -2 -3 -27
right_child=4 2 3 10 23 -7 -8 -9 -10 17 12 15 16 -15 -16 -17 -18 -19 -20 -21 -22 22 -24 -25 -26 29 -28 -29 -30 -31
leaf_value=0.063970116985139769 0.027256692023852998 -0.036208719331869053 0.054589605059021454 0.019586727208485505 -0.037143923393195895 0.020672128076553546 0.025554878562265734 0.056007469416431546 -0.008715688004355614 0.014290815455576027 -0.069954778911698212 0.056993495273139017 0.027048649700438701 -0.016405522148833698 -0.050225238081178895 -0.012139863042364288 -0.052449392157386115 0.023678699530221056 -0.022925041756278325 0.0063659035205133416 -0.045718735080542569 -0.035271745282480088 0.047808000117864631 -0.081866601671452321 0.0032881783120288252 -0.025666392924307155 -0.017431744699598638 -0.039245709743941953 0.021111541101286838 0.033972558671232785
leaf_count=31 25 231 234 459 545 234 116 901 139 128 43 166 67 151 181 33 27 147 237 139 108 29 31 58 291 574 42 172 33 28
internal_value=0 0.29178227870201517 0.52581080444923489 0.65599783407126933 -0.47890681175322014 -0.17842291797628149 -0.24675299503883091 0.93318298112776987 0.55061578223359697 -0.27765958283994024 0.27333040166940226 0.38392091698860648 -0.38077379000073885 0.2133691817215698 -0.54949331136618607 0.90892694498095128 0.083426906967696307 -0.0048089877597037025 -0.1974458216885441 -0.30802087223741553 -0.30732340410766384 0.89714875532120675 0.15228999077583333 -0.82612036300020542 -0.23960994537840322 -0.37125161220413849 0.3431961590754154 -0.61575665148498837 -0.5801770348236478 -0.4579613487087712
internal_count=5600 3968 2660 2280 1632 1308 380 1334 433 1029 946 809 137 610 517 199 94 512 365 336 1074 294 60 603 966 675 73 197 264 602
shrinkage=0.05


Tree=8
num_leaves=31
num_cat=0
split_feature=25 26 27 5 22 25 25 5 27 0 9 22 22 27 25 21 25 25 18 6 9 21 25 25 25 15 21 26 22 19
split_gain=154.25605585955515 74.521733922521491 89.015589052155931 33.099363293538715 29.525437793911735 23.233391021166412 25.140249057911326 21.283960223870629 18.56931570477936 17.322278794213851 14.8646114272047 13.985252515880333 16.318195122865916 16.693667258731523 13.806077541329675 13.067931118008524 11.843591546843825 21.773752057584421 12.980342701271791 12.375337013195324 11.285621385375393 11.176257900824723 16.267107942758386 11.027531919867062 10.954798798732639 10.526914628405862 12.374196865560272 12.37097557006874 10.456733605953421 10.421619047295156
threshold=1.2450000000000003 0.8055000000000001 0.90650000000000008 0.88150000000000006 1.0405000000000002 1.0975000000000001 0.6695000000000001 0.78650000000000009 0.83850000000000013 1.0375000000000003 1.1035000000000001 0.71850000000000014 1.0445000000000002 1.0705000000000002 1.9405000000000003 1.3625000000000003 0.63450000000000017 0.97650000000000003 1.2925000000000002 -0.94249999999999989 0.76650000000000007 1.0625000000000002 0.99250000000000005 0.94550000000000012 0.6905 -1.4779999999999998 1.0925000000000002 1.0065000000000002 0.95950000000000013 0.028500000000000001
decision_type=2 2 2 2 2 2 2 2 2 2 2 2 2 2 2 2 2 2 2 2 2 2 2 2 2 2 2 2 2 2
left_child=1 7 3 5 9 6 -3 23 -9 16 20 -2 13 25 -14 -12 -4 18 19 -18 -6 22 -8 -1 -5 -13 -27 -28 -10 -19
right_child=11 2 4 24 10 -7 21 8 28 -11 15 12 14 -15 -16 -17 17 29 -20 -21 -22 -23 -24 -25 -26 26 27 -29 -30 -31
leaf_value=-0.01608976571088502 0.028179605745227144 -0.0055660183824702003 -0.030195467952876445 0.025789099904391551 0.021793074407276434 -0.025829887687182525 0.048987032813634007 0.015678458100411807 -0.070538124203101876 -0.028671068465272634 0.056460321861729793 0.032346174620842355 -0.0030305635375066989 -0.062490653676442312 -0.043923273892652159 0.014541849776921276 -0.02418405732493098 -0.047359271135819933 -0.048101811803243251 0.046604297304179393 -0.011163332909723262 -0.00084206510073427045 -0.00021006235266541256 -0.05727940483504488 0.056443126798995602 -0.039574850311395897 0.074976119198169086 -0.034333604283735247 0.0045442432797659967 0.0042570376744809841
leaf_count=675 40 176 97 145 202 90 492 402 44 332 140 26 265 255 123 162 29 73 20 177 217 70 79 73 659 376 20 22 33 86
internal_value=0 0.23168279995195507 0.39257464925270508 0.71289740561289838 0.043060250782783617 0.4491485596833491 0.5576973386009777 -0.18997869801893288 0.14091309426800661 -0.21953073723470484 0.33878301945360084 -0.60382148075599951 -0.64712826157992343 -0.83245600716104506 -0.3170164070814071 0.67885156651088052 0.023520456164971087 0.18162451238531743 0.58248442456970606 0.7326348465586725 0.094353394427039633 0.74630872016521943 0.8405376625197849 -0.40200177943245297 1.0153936785037312 -0.59830820581457178 -0.67555970736807169 0.36027351406294195 -0.76686427183676842 -0.38796915604147425
internal_count=5600 4473 3246 1711 1535 907 817 1227 479 814 721 1127 1087 699 388 302 482 385 226 206 419 641 571 748 804 444 418 42 77 159
shrinkage=0.05


Tree=9
num_leaves=31
num_cat=0
split_feature=25 25 26 27 25 22 9 26 25 5 9 27 24 22 22 21 9 27 6 3 3 22 22 17 10 27 22 24 15 22
split_gain=140.14942399974962 90.729309473129845 55.150958500766507 49.696658612038334 23.753498673529677 24.629649390355748 21.244769496318177 20.384312570604521 23.883802653029015 20.35827957339594 14.599379543929873 12.628066261709677 13.571141471833588 11.847086286168608 13.850992110255454 14.048218410743708 12.768131656165604 11.877652117650705 11.369149358495084 10.051187676380344 9.4509600502731388 9.1830724100507837 11.902783938745131 11.43044589000632 9.0035313604351828 8.9398975378728807 10.634501510007377 8.7683469748828777 8.5897477322714675 8.5593679564787202
threshold=1.0675000000000001 0.66550000000000009 0.77650000000000008 0.90450000000000019 1.5585000000000002 1.0265000000000002 1.1375000000000002 0.86550000000000005 0.89250000000000018 0.85250000000000015 1.2975000000000001 1.0285000000000004 1.1185000000000003 0.81050000000000011 1.0885000000000002 0.91150000000000009 0.99050000000000005 0.85250000000000015 -1.5384999999999998 2.7455000000000003 1.8335000000000004 1.1705000000000003 1.2325000000000002 1.6985000000000003 0.93650000000000011 0.84650000000000014 0.94750000000000012 0.74850000000000017 0.24750000000000003 1.0025000000000002
decision_type=2 2 2 2 2 2 2 2 2 2 2 2 2 2 2 2 2 2 2 2 2 2 2 2 2 2 2 2 2 2
left_child=1 6 9 7 5 11 13 8 -4 -3 18 12 -2 -1 15 17 29 24 -5 -20 21 25 -23 -24 -15 26 -6 -16 -11 -17
right_child=4 2 3 10 20 -7 -8 -9 -10 28 -12 -13 -14 14 27 16 -18 -19 19 -21 -22 22 23 -25 -26 -27 -28 -29 -30 -31
leaf_value=0.0038574846776343224 -0.025061191674822597 -0.026813715429738805 0.041945751601677642 -0.039341706529388489 -0.049157715433424821 0.0095186275639801872 0.019157585175018713 0.052242291254485963 -0.0083059636733594788 0.050233682809727911 0.035349919149303757 -0.046242854513911247 0.012655413843456313 -0.036640536126856207 0.036911324233678149 -0.0079600757840026098 0.054206016295004128 -0.067283135305540212 0.011762398481846667 -0.054365217856653152 -0.078060056432307151 0.055337780447444987 -0.040235439288626405 0.031108647346380015 0.013395933552185216 -0.048061056851517479 0.045283716616040498 -0.012926443817973352 -0.004564950059785018 -0.052480599848152648
leaf_count=272 376 264 298 52 24 338 234 884 143 60 224 186 129 205 60 211 28 112 655 24 58 22 104 29 44 342 24 87 56 55
internal_value=0 0.26628672042038154 0.48305123951112749 0.60346910607228244 -0.43702866027650911 -0.25229135013436504 -0.16554863300405537 0.86285960761318947 0.50819075223109678 -0.22665657324388927 0.25620904822226176 -0.47120564118162411 -0.30751961138052047 -0.2850751445375842 -0.40803673343842101 -0.53345094514196656 -0.2073607144523357 -0.79931721828414193 0.11892280759719812 0.18833600631641811 -0.75818934970273322 -0.67768640456388785 -0.26366298133234201 -0.49115559612626836 -0.55576334867070609 -0.84460807805196614 -0.035055304063904835 0.14812446605627397 0.47574522449779472 -0.34320633785990989
internal_count=5600 3968 2660 2280 1632 1029 1308 1325 441 380 955 691 505 1074 802 655 294 361 731 679 603 545 155 133 249 390 48 147 116 266
shrinkage=0.05


Tree=10
num_leaves=31
num_cat=0
split_feature=25 26 27 5 24 22 25 5 26 24 25 25 25 5 22 25 21 25 1 21 27 26 4 26 22 11 25 27 9 24
split_gain=136.86289570172934 57.616382537596451 74.286977260324534 37.538150804514231 30.211314882591299 46.577356719071183 19.691979623134262 19.62559582969655 19.202498812233561 17.749770265932586 14.429165231640184 14.333168346458912 15.159214724952349 15.961407465348897 13.822077570523355 13.334364793526024 12.589764531105644 12.376209407811736 12.224058827536794 12.215762379370943 13.548104231457287 13.142457148532902 11.916825149945865 11.097732713523964 10.707655170483653 10.681240465935701 10.67014658387868 10.653179208736759 9.1711367200686311 9.1680351883258524
threshold=1.2815000000000001 0.81150000000000011 0.90650000000000008 0.88150000000000006 1.0265000000000002 1.0485000000000004 0.6695000000000001 1.3505000000000003 0.86950000000000016 0.71450000000000014 1.8325000000000002 0.98450000000000015 0.76450000000000007 0.84250000000000014 1.0445000000000002 0.85250000000000015 1.0675000000000001 0.53150000000000019 1.4215000000000002 0.90950000000000009 0.84050000000000014 0.75750000000000017 0.88350000000000006 0.95650000000000013 0.81650000000000011 0.6805000000000001 0.95550000000000013 0.97050000000000003 0.9305000000000001 0.73250000000000004
decision_type=2 2 2 2 2 2 2 2 2 2 2 2 2 2 2 2 2 2 2 2 2 2 2 2 2 2 2 2 2 2
left_child=1 7 3 8 5 29 -6 9 15 -1 14 12 13 -10 27 17 -14 -3 -8 20 21 25 -17 -13 -21 -11 -23 -2 -20 -4
right_child=10 2 4 -5 6 -7 18 -9 11 19 -12 23 16 -15 -16 22 -18 -19 28 24 -22 26 -24 -25 -26 -27 -28 -29 -30 -31
leaf_value=0.004863241732790494 -0.017964048156593446 -0.035169040225077643 -0.0068599768633631555 0.049059828268639354 -0.015749731087952846 0.013135438681093549 0.024975441121198566 0.042142554350789015 0.026743757505826395 -0.053765258454572085 -0.047595303586602966 -0.023143245552343844 0.060442903724028746 -0.068211745726477729 -0.00046926355546447269 -0.048487604001958236 -0.014341551999117975 0.027119403230552619 -0.050418583709700586 0.040250144168125765 -0.075289930249104436 0.015040150765511165 0.023120588792490449 0.033624668751022761 -0.012670247081493028 -0.0079937341362628124 -0.06344846718788083 -0.048420177324461966 0.021111388404122671 -0.051061290209161073
leaf_count=483 269 40 59 831 183 302 701 79 139 152 324 78 260 21 215 83 26 165 40 46 61 107 33 63 245 79 21 213 33 249
internal_value=0 0.22789107879551471 0.3699146993625177 0.66345049959899582 0.054555921680903764 -0.29613339283101237 0.27723603693579635 -0.13560574061326258 0.3792118124709345 -0.19957547252333308 -0.59388839451074893 0.60016221997031338 0.78306532656192629 0.28590182191846292 -0.43113394645800873 -0.016937353053594915 1.0707380414339374 0.29433417937189066 0.417758202969501 -0.40274894908944231 -0.62318914101863587 -0.47427221077502879 -0.56230475166104954 0.043728518904778607 -0.085583370517019974 -0.76234196611060934 0.043006728617641439 -0.62364647085971969 -0.36411681705495552 -0.85085248133026825
internal_count=5600 4579 3306 1739 1567 610 957 1273 908 1194 1021 587 446 160 697 321 286 205 774 711 420 359 116 141 291 231 128 482 73 308
shrinkage=0.05


Tree=11
num_leaves=31
num_cat=0
split_feature=25 25 5 27 25 26 0 26 24 27 3 3 0 25 5 26 25 1 1 13 5 25 6 0 6 14 13 24 6 27
split_gain=124.20818073761771 54.23956070390998 46.042103804310045 44.654183323210759 33.194786530374053 39.238632788132961 28.624445503254524 18.788972969125602 16.136002550436253 14.484786633691083 14.429242103008612 14.418926125413087 13.361334350282313 13.308715739753396 13.268655094489542 11.797183735371306 13.256363167811074 11.673186549142041 11.431337023858021 11.427551172924378 11.772897816901333 11.264229633627188 11.419802125318384 10.792284815981558 10.680789009449189 10.161659081279765 9.6375461348401874 11.634342333541065 11.424468566122446 9.4784646054099824
threshold=1.2815000000000001 0.59250000000000014 0.88150000000000006 0.90450000000000019 0.96550000000000014 0.72850000000000015 1.7985000000000004 0.88850000000000018 0.64150000000000007 0.83850000000000013 1.3665 2.6165000000000007 0.90750000000000008 1.8325000000000002 1.5755000000000001 0.81150000000000011 0.79150000000000009 0.5495000000000001 -1.6234999999999999 1.3225000000000002 0.66350000000000009 0.98450000000000015 0.83850000000000013 0.75950000000000017 -0.33599999999999997 -1.2704999999999997 0.50750000000000017 0.94450000000000012 0.21000000000000005 0.68650000000000011
decision_type=2 2 2 2 2 2 2 2 2 2 2 2 2 2 2 2 2 2 2 2 2 2 2 2 2 2 2 2 2 2
left_child=1 9 4 15 5 8 11 -6 -3 12 -7 18 19 -2 -11 16 -4 24 -5 20 -1 25 -23 -18 -8 -20 -14 28 29 -28
right_child=13 2 3 6 7 10 17 -9 -10 14 -12 -13 26 -15 -16 -17 23 -19 21 -21 -22 22 -24 -25 -26 -27 27 -29 -30 -31
leaf_value=-0.041506016133500662 -0.020558634481970893 0.025459271273325826 0.04679599731517603 -0.027976659775161797 -0.042327654903802824 0.0271133656450782 0.023940927778747817 -0.0017280285603951178 -0.041561232009286991 -0.031126358522082755 -0.0021064047593184945 -0.047240278694985899 -0.021196994673656645 -0.045663065590774279 0.034704089761478485 0.050332531671070317 0.02654854529992802 -0.083269450532454659 -0.0078114861731523868 0.050296796616405903 -0.00061887448203977122 0.020421355475172463 -0.033598260505807116 -0.049524928467256056 -0.043174565772441068 0.042536437778885938 0.077596691945548801 0.077684040149523431 -0.010930296559352373 0.015042189145449842
leaf_count=139 697 47 89 42 183 912 43 316 161 350 215 31 59 324 34 745 39 33 46 25 146 191 50 37 55 356 38 35 93 69
internal_value=0 0.21750072985844968 0.33464912933850366 0.57151434595491613 0.1105394018747223 0.27879305629619205 0.24201289737742543 -0.33213890731145335 -0.52574733491568493 -0.19916079228486805 0.42981967099454932 0.40051902111926713 -0.0052705949528165669 -0.56745193837645502 -0.50550531782302199 0.89290132189838045 0.40705128848947009 -0.62533386628739562 0.46140255927748469 -0.29652284489876785 -0.41097561275449912 0.52788626015323747 0.18418300907121207 -0.21190731832243576 -0.27645567304530683 0.73515466836694854 0.30191307691791591 0.48459003107833082 0.29718390391907168 0.74548169244654339
internal_count=5600 4579 3591 1757 1834 1335 847 499 208 988 1127 716 604 1021 384 910 165 131 685 310 285 643 241 76 98 402 294 235 200 107
shrinkage=0.05


Tree=12
num_leaves=31
num_cat=0
split_feature=25 25 5 27 25 26 0 26 24 5 27 3 3 22 0 22 22 27 26 25 26 1 15 1 25 21 24 21 0 6
split_gain=112.65484130243374 49.206600647948612 42.035863948047421 41.247793784652131 30.03930201231951 35.537931636333575 25.896437322663957 17.066829311417386 14.653373177637496 13.402167866685888 16.6912601557279 13.103922081708689 13.056574506528996 12.330917930164787 12.264668020925351 12.104382947332979 11.550938118374102 11.225079524921473 11.032090672841832 12.046703801053463 11.011194357242275 10.654135493493179 10.478369147530525 10.34021092486941 10.264410268814622 10.826721873927687 10.140237300553189 9.742807938057938 9.7201502695190811 9.6412930965397194
threshold=1.2815000000000001 0.59250000000000014 0.88150000000000006 0.90450000000000019 0.96550000000000014 0.72850000000000015 1.7985000000000004 0.88850000000000018 0.64150000000000007 1.5755000000000001 0.84250000000000014 1.3665 2.6165000000000007 1.0125000000000002 1.8355000000000001 0.77950000000000019 1.0355000000000001 0.84650000000000014 0.81150000000000011 0.79150000000000009 0.99350000000000016 0.5495000000000001 0.8035000000000001 -1.6234999999999999 0.98450000000000015 0.87250000000000016 1.3235000000000003 0.71450000000000014 0.75950000000000017 -0.33599999999999997
decision_type=2 2 2 2 2 2 2 2 2 2 2 2 2 2 2 2 2 2 2 2 2 2 2 2 2 2 2 2 2 2
left_child=1 9 4 18 5 8 12 -6 -3 10 14 -7 23 15 22 -2 27 -15 19 -4 -17 29 -1 -5 -25 -26 -19 -9 -21 -8
right_child=13 2 3 6 7 11 21 16 -10 -11 -12 -13 -14 17 -16 20 -18 26 -20 28 -22 -23 -24 24 25 -27 -28 -29 -30 -31
leaf_value=-0.01472651795490537 0.0049422670945385855 0.024152046151453655 0.044721704032999861 -0.026555112375622698 -0.040388370844365584 0.025852575966754748 0.022759298564414665 0.022998358913237971 -0.039724640469894212 0.03725952242794181 -0.030010556324427298 -0.0020007492076068076 -0.045082084164945038 0.033987508383358574 0.055569297245085914 -0.013666772972866715 0.025416375173791618 -0.032650677239771164 0.048466459053054994 0.025310383021149976 -0.049329642154464844 -0.079652328857001728 0.015800480303004197 0.035065109719337885 -0.020771807587981722 0.024161728120679127 0.0017906924870991804 -0.02767231639188792 -0.046883188168808564 -0.041019911979139095
leaf_count=387 64 47 89 42 183 912 43 51 161 59 346 215 31 44 35 112 106 231 745 39 428 33 161 402 83 158 142 159 37 55
internal_value=0 0.20751601375094864 0.31948931969286715 0.54681971865101897 0.10529611416506912 0.26568878818650238 0.2304714542166422 -0.31605577798732665 -0.50169511532078859 -0.18955089060773239 -0.24844556424260014 0.40953766934367197 0.38144227667025549 -0.54181108557006918 -0.04125780381569543 -0.73066247608868995 -0.032831940093898178 -0.27537011961698404 0.85815384749668744 0.38802669491057534 -0.83241315379210246 -0.59528443164478761 -0.11508412195536648 0.43938517826886703 0.50279374699548551 0.17496244753594806 -0.3909886136424664 -0.30732699036599498 -0.20126170732782353 -0.26271991215683577
internal_count=5600 4579 3591 1757 1834 1335 847 499 208 988 929 1127 716 1021 583 604 316 417 910 165 540 131 548 685 643 241 373 210 76 98
shrinkage=0.05


Tree=13
num_leaves=31
num_cat=0
split_feature=25 26 25 25 21 5 24 22 22 13 25 22 19 5 5 3 21 13 24 22 9 0 18 21 22 17 26 3 13 3
split_gain=102.28416607491967 45.094782996833437 34.254358329127328 43.072268515049757 23.905064613342063 17.406273749184336 16.961963953196115 15.834748051361025 14.573906002973928 13.888960254935228 12.345200341728258 14.134108625287546 11.634393623155441 9.8751054317943581 9.7381413737924838 12.913117989070081 12.46044509833764 9.6972021319236905 9.6529111247796546 9.5564961004578564 9.4992436714404462 9.3292601610231127 9.1877937618050805 9.1854661047990405 11.906660786159097 9.9959751050307588 8.4468659815403555 8.3330281002504307 11.389939645708782 9.2760558607536421
threshold=1.2815000000000001 0.81150000000000011 0.6785000000000001 0.98450000000000015 1.0625000000000002 0.7985000000000001 0.71450000000000014 1.0215000000000003 1.0025000000000002 1.3685000000000003 2.1950000000000003 1.0125000000000002 0.9255000000000001 1.5755000000000001 0.84250000000000014 1.8795000000000002 0.57350000000000001 0.65950000000000009 0.69550000000000012 0.77950000000000019 0.99050000000000005 0.51950000000000018 -0.68649999999999989 0.90950000000000009 0.84350000000000014 1.5975000000000004 0.99350000000000016 1.3945000000000003 0.89450000000000018 1.7195000000000003
decision_type=2 2 2 2 2 2 2 2 2 2 2 2 2 2 2 2 2 2 2 2 2 2 2 2 2 2 2 2 2 2
left_child=1 6 13 4 8 -6 12 14 27 23 11 19 18 -3 20 16 -16 -14 21 -2 -5 -1 -13 25 -25 -8 -21 -4 29 -29
right_child=10 2 3 7 5 -7 9 -9 -10 -11 -12 22 17 -15 15 -17 -18 -19 -20 26 -22 -23 -24 24 -26 -27 -28 28 -30 -31
leaf_value=-0.023858544350935498 0.0056043488445464452 -0.0078638213147277595 0.035234833863844864 -0.037162897001402094 -0.02381054689251455 0.022544636577621773 -0.033140707996956308 0.0210601907900973 0.052626718765380678 0.032803852766861548 -0.053505128149094444 -0.030040979216045538 -0.054090235329427798 0.036867579030334864 0.07131533904563192 -0.057711773871796469 0.0030534684109870917 0.0033031045840098681 0.060708129244170045 -0.013001616365599456 0.01024992159635324 0.018380987017367012 0.0058249582159303525 0.035766437433150298 -0.016220300095950806 0.040303128335848482 -0.044941500486533031 0.00029151977410459825 -0.015213669787208579 0.058203628620382024
leaf_count=65 61 608 732 158 117 292 393 307 451 55 151 106 49 55 31 32 255 77 44 112 59 288 234 56 226 20 357 52 90 67
internal_value=0 0.1980662639731201 0.32507941208353625 0.43117445784130382 0.61404812931949371 0.18279425652619261 -0.1241488738014984 0.055764460672422272 0.74543902581936627 -0.3200665852299609 -0.51801073686539856 -0.42620615160242575 0.15375152461653058 -0.083437654895308869 -0.1550783774612795 0.071969457952320501 0.2085244943109103 -0.3804963487562617 0.32280559829756156 -0.63809226003732611 -0.48418877686975414 0.2121354882572874 -0.10679639675195352 -0.39793569772007642 -0.11736341342853696 -0.5913986390592757 -0.73955442889270118 0.59867745070729261 0.23944663811971381 0.65959554718458557
internal_count=5600 4579 3306 2643 1801 409 1273 842 1392 750 1021 870 523 663 535 318 286 126 397 530 217 353 340 695 282 413 469 941 209 119
shrinkage=0.05


Tree=14
num_leaves=31
num_cat=0
split_feature=25 25 25 26 27 26 25 22 17 9 22 27 27 0 26 25 13 22 24 27 26 0 15 0 14 9 9 27 0 17
split_gain=92.866866440747074 41.486544294894372 31.491386535835815 33.866040023107388 38.207652538866284 21.92308544290308 16.02110006635419 15.258955946898729 14.959803950359913 14.764734160507395 14.726133505589583 17.740336567050406 11.804745846858641 11.82262878633415 11.635978549515507 11.612556746327172 11.567398586899285 11.376301918280973 11.29709201010867 16.104676406344861 10.574260728787777 10.023483834347509 9.5253785015728809 9.2692648940720819 9.2686648158971678 11.767100021414842 8.7762518713099027 8.7369518069095378 10.293766554481984 8.7152569675177318
threshold=1.2815000000000001 0.59250000000000014 0.96550000000000014 0.77250000000000008 0.85450000000000015 0.88850000000000018 0.7985000000000001 1.0705000000000002 1.2625000000000002 1.1665000000000003 1.0465000000000002 1.0145000000000002 0.83850000000000013 1.8355000000000001 0.87550000000000006 1.8325000000000002 1.3085000000000002 1.0445000000000002 1.2805000000000002 0.91350000000000009 0.88150000000000006 1.6975000000000002 -1.5554999999999997 1.4585000000000004 0.33250000000000007 0.98650000000000004 1.5380000000000003 1.0105000000000002 1.7985000000000004 1.4375000000000002
decision_type=2 2 2 2 2 2 2 2 2 2 2 2 2 2 2 2 2 2 2 2 2 2 2 2 2 2 2 2 2 2
left_child=1 12 3 7 20 8 21 9 -4 -3 11 18 13 16 -8 17 -1 22 19 -7 -5 -6 -2 -13 -12 -26 -19 -16 -29 -17
right_child=15 2 5 4 6 10 14 -9 -10 -11 24 23 -14 -15 27 29 -18 26 -20 -21 -22 -23 -24 -25 25 -27 -28 28 -30 -31
leaf_value=-0.0080708817136664248 0.039843269297893391 -0.018566201291076202 -0.038867073718632121 0.031039291330516017 0.0055424162283470623 0.01577024310601528 -0.040599536081414783 0.044887551172788295 0.017134301153061655 0.056777801230634396 0.040193866606135741 -0.016460385954249965 -0.022682525558137243 0.05502193032638214 0.039676874219395614 -0.050727212871361033 0.043112595111313122 -0.0085210242400551427 0.045083896835776072 -0.041716589942905703 0.052238994990426661 -0.034582097518039277 -0.029500442040307752 -0.075183064710350411 -0.041858251173259621 0.032190770285726734 0.042254017386803594 0.02295821244563942 -0.029814431534810823 -0.01048031307922587
leaf_count=518 22 338 201 540 387 206 27 54 65 29 187 136 384 37 297 248 49 172 79 66 494 77 460 35 38 52 43 238 45 76
internal_value=0 0.18891605574218936 0.2925044722523733 0.41885436728094327 0.52747461362657988 0.0010061350416717303 0.26084818549664268 -0.10384900963300127 -0.50363997507693203 -0.25229669073632521 0.16903257068958483 -0.032127352723884832 -0.17589376407437207 -0.00084198288831646641 0.48076548299268024 -0.49541903706662921 -0.072926262008689194 -0.34940363461030383 0.22997895786209177 0.031922530729822499 0.81763997523029808 -0.0222118812647299 -0.52710230728430585 -0.56706328612762502 0.54645431114360576 0.012538674628436873 0.032665380420237547 0.54290985143978632 0.2906563048375575 -0.82403241868533916
internal_count=5600 4579 3591 2526 2105 1065 1071 421 266 367 799 522 988 604 607 1021 567 697 351 272 1034 464 482 171 277 90 215 580 283 324
shrinkage=0.05


Tree=15
num_leaves=31
num_cat=0
split_feature=25 25 5 27 3 9 24 27 21 22 9 25 9 13 27 24 27 9 22 0 22 21 1 13 22 3 23 3 13 27
split_gain=80.253797556879221 63.967391721013861 32.376473394262717 29.631560773479976 24.006755694586076 21.688697236032016 19.588056917741209 18.757454944283438 15.322782327826971 25.883065347772764 14.94500071509361 12.289000130053751 12.205887103674067 12.462803333419277 10.976452971102768 17.899143257011993 11.836402098262486 10.89134985067826 10.866569288580429 10.761163785693173 10.476542457061658 14.830482466709871 10.201480727033644 11.787208838241428 10.190250607171265 8.9448517743282352 9.633522581689391 8.5094869542167295 8.3837169881715816 8.2156847785741736
threshold=1.0895000000000004 0.59250000000000014 0.81250000000000011 1.0105000000000002 1.8335000000000004 1.2475000000000003 1.2565000000000002 0.90250000000000019 1.1605000000000001 1.0235000000000001 1.5710000000000002 0.98950000000000016 1.0415000000000003 1.3005000000000002 0.86150000000000004 0.89650000000000007 0.72250000000000003 0.57350000000000001 0.81650000000000011 1.8945000000000003 1.0885000000000002 0.62050000000000016 0.8015000000000001 1.0225000000000002 1.1705000000000003 0.5445000000000001 1.2485000000000002 1.6085000000000003 0.8155 0.84050000000000014
decision_type=2 2 2 2 2 2 2 2 2 2 2 2 2 2 2 2 2 2 2 2 2 2 2 2 2 2 2 2 2 2
left_child=1 12 5 11 6 8 7 20 9 14 19 -4 13 18 16 -16 -3 -10 -1 27 21 -2 23 -23 -9 -20 -27 -5 -12 -14
right_child=4 2 3 10 -6 -7 -8 24 17 -11 28 -13 29 -15 15 -17 -18 -19 25 -21 -22 22 -24 -25 -26 26 -28 -29 -30 -31
leaf_value=-0.0024083791636801254 0.040152331897567881 -0.012559646036468428 0.040065041292652932 0.015314220347290776 -0.061200928846778926 0.047246474784555959 0.0066647799875364433 -0.041451426972568477 0.036212178482377365 0.038349619711145658 -0.0066432839636695207 0.010064760308886382 0.027173999643320176 0.024085236906943565 -0.060830066933280302 -0.0017250540987765251 0.016785047136991315 -0.040781348667987057 -0.0035704047005085619 -0.042364677048178451 0.030677731499205448 -0.031406513117417573 -0.053427063546857813 0.0097729572652045654 -0.011541429495628877 -0.041948971528632195 0.012925640640871969 -0.019745087334657182 0.069106037684345034 -0.011397762192530646
leaf_count=203 49 231 1066 238 127 121 365 433 22 212 21 167 117 65 76 172 383 123 103 58 69 141 71 144 164 361 36 100 54 108
internal_value=0 0.2019097238911341 0.35226843358718124 0.54295012391250319 -0.34462985006229835 0.11555753761425275 -0.2714313805733034 -0.41200456013045422 0.033842909007495141 0.11937766411879945 0.11431925681796612 0.71696145168775172 -0.24083133342759711 -0.36213483618565823 -0.036896133181081918 -0.39527444582696458 0.11176128564423653 -0.58108048221830677 -0.44056768791869877 -0.041219396160747934 -0.11431375280858735 -0.23864219338085527 -0.38262468740488198 -0.2114219755826425 -0.65858307007817196 -0.60130060527684526 -0.73941130538816613 0.096769597525951254 0.95193736585040611 0.17223035471104034
internal_count=5600 4037 3044 1704 1563 1340 1436 1071 1219 1074 471 1233 993 768 862 248 614 145 703 396 474 405 356 285 597 500 397 338 75 225
shrinkage=0.05


Tree=16
num_leaves=31
num_cat=0
split_feature=25 26 27 26 25 3 25 5 24 27 9 25 27 24 22 3 13 2 5 22 24 13 0 16 21 6 24 22 21 13
split_gain=72.804853973807468 58.203697947282244 66.401900716521908 28.216438784640076 24.606838274885941 22.20536375777435 21.946620727879171 18.201952922832227 17.800524476449564 17.15724465667698 16.930701991312048 12.661613640012462 11.444818788284834 10.52759780873942 21.73977332676154 10.604429661084017 11.105112590512823 10.182439300015758 9.8552786348762442 10.552707068792468 9.6558205622884365 9.6521802069748688 9.4884482332022024 9.3732052687438383 9.2730144962561099 13.365151340126394 8.972145083279873 8.9720706942702471 8.9022048877439008 8.8654653961243763
threshold=1.0895000000000004 0.76750000000000018 0.89550000000000007 0.85650000000000015 0.61750000000000005 1.8335000000000004 0.94550000000000012 1.3445000000000003 1.2565000000000002 0.90250000000000019 1.6075000000000002 0.73750000000000016 0.73350000000000015 1.0755000000000001 1.0485000000000004 1.5935000000000004 0.50050000000000006 1.2535000000000001 1.3105000000000002 1.0885000000000002 1.0795000000000001 0.96150000000000013 0.52950000000000019 9.9999996826552254e-21 0.95150000000000012 -0.044499999999999991 0.65450000000000019 0.83650000000000013 0.62050000000000016 1.0125000000000002
decision_type=2 2 2 2 2 2 2 2 2 2 2 2 2 2 2 2 2 2 2 2 2 2 2 2 2 2 2 2 2 2
left_child=1 7 3 6 20 8 -3 22 9 18 13 21 -13 14 -6 -15 -17 -11 19 28 -4 26 -1 -22 -14 -26 -5 -28 -2 -30
right_child=5 2 4 11 10 -7 -8 -9 -10 17 -12 12 24 15 -16 16 -18 -19 -20 -21 23 -23 -24 -25 25 -27 27 -29 29 -31
leaf_value=-0.039173817779634516 0.028200417971935343 0.020737036838603277 -0.044229268897558044 0.072735284820569845 -0.030159674834771645 -0.059093013525366417 -0.035892254228256808 0.03944847984638377 0.0063271413014848003 -0.036943731723442993 0.043315580393453131 -0.029836060386454949 0.055486761333141621 0.020744031907665134 0.014502573353525595 0.056619601291563883 -0.02248287454346844 0.0023622918478804307 0.041432394426202244 0.030513220998326835 0.013218244357772078 0.051170221174172262 -0.011624895089938338 -0.040651837368359846 0.05932289399794044 -0.00064417536918682974 0.032355893588782852 -0.017302193555704646 -0.038134375441429891 -0.005113468992548627
leaf_count=158 41 540 148 21 234 127 81 65 365 515 122 21 641 404 216 21 124 82 42 57 87 82 687 53 79 89 60 104 168 166
internal_value=0 0.19275277427543042 0.3281424823264904 0.60842368631434895 0.0058534629086942104 -0.32898576885830294 0.26371543761338617 -0.2566797834072691 -0.25885874599621322 -0.39349103979536248 0.14224238971715139 0.81661933789461805 0.95081473638806346 0.056179794445843513 -0.1742341090955796 0.24433479430384647 -0.22082226276459296 -0.63057420976507272 -0.1088517204837406 -0.19983984596620749 -0.52180069863370382 0.43169928158321452 -0.33528832761014499 -0.1428086819220569 0.99150408162645609 0.54863747877529412 0.17426550943172714 0.01557321682879831 -0.32353078621123627 -0.43331394348643126
internal_count=5600 4037 3127 1718 1409 1563 621 910 1436 1071 1121 1097 830 999 450 549 145 597 474 432 288 267 845 140 809 168 185 164 375 334
shrinkage=0.05


Tree=17
num_leaves=31
num_cat=0
split_feature=27 26 24 0 5 9 3 11 27 26 13 5 27 27 24 24 15 3 5 5 26 11 5 0 0 6 5 23 17 24
split_gain=55.231001175101134 68.258539302134963 41.651195486494728 20.479440424989953 18.359006715388404 18.310288006403752 15.106874168331009 17.047502523860544 14.1644304201693 12.863766643834834 12.112873109098459 13.731921351613098 10.835975304214614 10.370644174487321 12.208451467255419 9.7472887046726413 9.2405264921188035 9.1999496606352285 8.7017045788010137 8.5716503256164636 12.676747173544401 13.373755483950479 10.278596571416399 9.0755510148782683 8.4911087439890665 8.3295980164761403 8.1538552590919817 8.0916364820392168 7.9355068994610782 9.0724055831993446
threshold=0.90250000000000019 0.85650000000000015 1.0265000000000002 1.6975000000000002 1.8210000000000004 0.99050000000000005 1.7315000000000003 -0.78449999999999986 1.0175000000000003 0.72850000000000015 0.63350000000000006 1.0075000000000003 0.84050000000000014 0.76850000000000007 1.0935000000000004 0.78250000000000008 -0.93649999999999989 1.7675000000000003 0.78650000000000009 1.1515000000000002 1.1165 1.5005000000000002 1.0025000000000002 2.2265000000000006 0.51950000000000018 1.4355000000000002 1.2495000000000003 0.99250000000000005 0.5475000000000001 0.72150000000000014
decision_type=2 2 2 2 2 2 2 2 2 2 2 2 2 2 2 2 2 2 2 2 2 2 2 2 2 2 2 2 2 2
left_child=1 5 3 4 15 9 19 26 -9 24 11 -3 18 -11 -15 17 -12 -2 -7 22 -21 23 -4 -22 -1 -18 27 -8 -26 -30
right_child=2 10 6 -5 -6 12 7 8 -10 13 16 -13 -14 14 -16 -17 25 -19 -20 20 21 -23 -24 -25 28 -27 -28 -29 29 -31
leaf_value=-0.044418441551879018 0.0043243612946178081 -0.0025501749657068874 0.0072815815065961648 -0.058600668621177202 0.037189858726149445 0.0013390507839777964 0.0011960194154436706 0.015541420638296752 -0.051689757280529304 0.010051151505129976 0.050800929205485484 0.03775760555798241 -0.04799817272720501 -0.026792313776171639 0.031586503506255657 -0.029329735830825921 0.030387471799348493 -0.055322728427881433 0.036254340192042593 0.049533381468230608 0.018848399273169225 -0.072499798520752931 -0.021259830882593537 -0.039545729911439537 -0.038997800051411291 -0.016443082362583308 -0.02212994082728495 0.081152939556488876 0.011242280453233108 -0.021708477254264155
leaf_count=118 190 253 511 164 58 119 25 41 149 441 256 149 24 201 45 610 827 32 197 103 313 20 175 30 99 44 33 27 158 188
internal_value=0 0.22896497201131769 -0.18225726850460577 -0.49497301576770741 -0.37281496959707822 -0.061844005740166595 0.042920449853878405 -0.38938047106957285 -0.73258685192098316 -0.1754871059602561 0.55079528706825331 0.23920320953926485 0.35869643900645587 0.012444902114277182 -0.32087272158676722 -0.4511950009899493 0.66308386157880039 -0.083923363388346522 0.45951449270912703 0.1445412622831726 0.35859212442821559 0.17935692574380793 0.00071668221460536869 0.27351138644959344 -0.4024243634403174 0.56020306370431128 0.36953701239935222 0.86214168620996534 -0.27453728318431675 -0.12938133850230285
internal_count=5600 3119 2481 1054 890 1590 1427 275 190 1250 1529 402 340 687 246 832 1127 222 316 1152 466 363 686 343 563 871 85 52 445 346
shrinkage=0.05


Tree=18
num_leaves=31
num_cat=0
split_feature=25 25 26 27 25 9 24 13 27 26 26 27 2 5 10 25 9 13 14 27 24 22 0 13 4 22 11 10 15 21
split_gain=66.281555184105699 62.806044269329092 29.380057961806543 36.207123301519303 17.905111766873311 15.479667746137959 13.58887566606646 12.641447843087747 13.61371646172574 23.154016143544375 12.124675567456649 16.749574411003529 11.63123635675646 11.524850526094847 10.722070738448751 10.436850369289601 10.039632137032763 11.010348710349128 10.453879411078399 9.9967617814151328 12.149951550179651 14.699988103623618 11.458185520892323 9.509135384187978 10.615476720166624 9.4655189689775199 8.2854131546927885 8.2759800912733876 8.1559588217894099 8.1074135670144116
threshold=0.98450000000000015 0.59250000000000014 0.77650000000000008 0.89550000000000007 1.5585000000000002 1.6075000000000002 1.2745000000000002 1.4485000000000003 0.90250000000000019 0.9255000000000001 0.89650000000000007 0.79950000000000021 1.5615000000000001 0.7985000000000001 1.0215000000000003 0.7955000000000001 1.0415000000000003 1.3005000000000002 -0.62549999999999983 1.3285000000000002 1.0755000000000001 1.0485000000000004 1.0725000000000002 0.69450000000000012 -0.92749999999999988 0.81650000000000011 -0.24199999999999997 -0.26449999999999996 -0.56949999999999978 0.99250000000000005
decision_type=2 2 2 2 2 2 2 2 2 2 2 2 2 2 2 2 2 2 2 2 2 2 2 2 2 2 2 2 2 2
left_child=1 16 13 10 6 19 7 8 9 23 11 -4 -10 -3 -13 -12 17 25 26 20 21 22 -5 -2 -25 -1 -18 -20 -19 -27
right_child=4 2 3 5 -6 -7 -8 -9 12 -11 15 14 -14 -15 -16 -17 18 28 27 -21 -22 -23 -24 24 -26 29 -28 -29 -30 -31
leaf_value=-0.0017415118360820264 -0.051733000255430477 -0.017213900254901823 0.037710286525907466 0.00060584850516753929 -0.027812909310395612 0.048510373141700668 0.011015251531058593 0.012079614959829177 -0.037936644639106613 0.018941659764203769 0.025872919919469651 -0.010165540099370677 0.034011690027793438 0.018519993351388004 0.05416500954128417 0.058043890988403818 0.0056108635700610476 -0.016412586555642341 -0.038883283091724737 -0.019588376220365966 0.022845208453014694 0.019956798642365027 -0.051694515234046279 -0.053518729286392334 -0.0010716805017970136 -0.036267190017398331 0.079006803167055328 0.010097801131097494 0.055527807058347201 -0.0082641448571013978
leaf_count=203 93 278 488 90 610 97 342 185 332 216 164 157 25 140 35 407 31 29 52 143 356 140 83 52 174 347 32 110 36 153
internal_value=0 0.21280606923832196 0.38768764277688783 0.48834535680043445 -0.25339255029076341 0.18503725313260513 -0.13025872503063371 -0.24381885920765672 -0.34482862336646469 -0.1398466401752366 0.73044284794711822 0.54461753248920852 -0.65602677392668152 -0.1036057906486967 0.025572815221702516 0.96839032501321154 -0.21680742689067783 -0.32723801700343508 0.15911448892137636 0.094961603564002878 0.19956549439595003 -0.092573891205129585 -0.48755287175121004 -0.48679692042384676 -0.26166231245545118 -0.40133685709700834 0.85848493009772553 -0.11309371892092965 0.46766183248884674 -0.5523768873028212
internal_count=5600 3571 2578 2160 2029 909 1419 1077 892 535 1251 680 357 418 192 571 993 768 225 812 669 313 173 319 226 703 63 162 65 500
shrinkage=0.05


Tree=19
num_leaves=31
num_cat=0
split_feature=25 25 26 27 3 24 26 27 25 9 25 22 21 24 24 22 21 3 13 9 13 9 14 13 13 21 22 21 25 11
split_gain=60.439672617131258 49.615590454440067 25.434206751899055 37.396161863077126 16.158120813581583 15.930280463420633 15.186439145403199 19.388209507378988 14.96695877961281 14.793200317109694 13.696917624701385 11.19555709333536 13.911008657770708 12.376386435239162 10.185996896776047 16.668571887132885 10.401521363965314 10.009897133155617 9.3597632959560855 9.2395569315675559 9.2099035389861861 9.0931203375679708 10.183772626988635 9.9834449327034278 9.0876383744675451 8.9376067177463661 8.663832214620367 8.6223283914298179 10.578280056206495 8.5833357894537148
threshold=1.0565000000000002 0.59250000000000014 0.77650000000000008 0.89550000000000007 1.8335000000000004 1.2565000000000002 0.88650000000000007 0.82250000000000012 2.0390000000000006 1.6075000000000002 0.94850000000000012 1.0265000000000002 0.71450000000000014 0.65850000000000009 1.0755000000000001 1.0405000000000002 1.1525000000000003 1.5935000000000004 0.50050000000000006 0.75850000000000006 0.8155 1.0365000000000002 -0.62549999999999983 1.3005000000000002 1.4385000000000003 0.91250000000000009 0.81650000000000011 0.95150000000000012 0.76450000000000007 0.53750000000000009
decision_type=2 2 2 2 2 2 2 2 2 2 2 2 2 2 2 2 2 2 2 2 2 2 2 2 2 2 2 2 2 2
left_child=1 21 -3 6 5 8 7 10 11 14 -4 12 -2 -14 15 25 -17 -16 -19 -7 -11 23 -23 26 -13 -5 -1 28 -8 -9
right_child=4 2 3 9 -6 19 27 29 -10 20 -12 24 13 -15 17 16 -18 18 -20 -21 -22 22 -24 -25 -26 -27 -28 -29 -30 -31
leaf_value=-0.0016546310018779337 0.0062586728122033634 -0.0060684025938610095 0.035559210699042325 -0.044297745106564902 -0.04973777515454391 -0.025223737477079969 0.017620474983564088 -0.043335152139314687 -0.055878335229143997 -0.0060586404901677715 -0.010780108646524525 -0.008690401271946464 0.028253192624470843 -0.033504891954347707 0.020431611272999278 0.035454084758148326 -0.0095907521480319766 0.052600111109282505 -0.021998850750756097 0.01384257366708095 0.059358003899994877 0.041768035111513786 -0.0059479408449560588 0.022233596787567575 0.029101432584682063 -0.0023992722091840269 -0.026442732836857531 0.021466989588450662 0.056589803187188481 0.020659022522389232
leaf_count=203 148 450 478 140 137 77 96 63 109 31 78 262 36 512 387 100 113 20 118 317 86 64 163 65 87 85 498 163 480 34
internal_value=0 0.18247759902088009 0.32223518634901821 0.4076285718349883 -0.28513950382211278 -0.22770787301058421 0.64612647526945044 0.41818301641924149 -0.35154376797222009 0.12914383334658708 0.57302017449981069 -0.27946596717296085 -0.4329370842982927 -0.58597613562071349 0.047760053843139055 -0.18161448875828551 0.22539046081752265 0.23860816370160765 -0.22492734746664139 0.12301129705907693 0.82894492232963524 -0.20650645112405105 0.14941643500935875 -0.31241089053192728 0.014964834908617107 -0.56915743574035604 -0.38333891846424362 0.86579220954768255 0.99369882750435445 -0.42308172986186487
internal_count=5600 3915 2922 2472 1685 1548 1392 653 1154 1080 556 1045 696 548 963 438 213 525 138 394 117 993 227 766 349 225 701 739 576 97
shrinkage=0.05



feature importances:
Column_25=89
Column_27=66
Column_22=64
Column_26=56
Column_24=54
Column_5=52
Column_3=35
Column_9=28
Column_13=28
Column_0=26
Column_21=26
Column_1=10
Column_6=10
Column_4=8
Column_17=7
Column_10=6
Column_11=6
Column_14=6
Column_15=6
Column_19=6
Column_18=4
Column_23=3
Column_2=2
Column_16=1
Column_20=1

pandas_categorical:null
